{"learner":{"attributes":{"best_iteration":"99","best_ntree_limit":"100","scikit_learn":"{\"n_estimators\": 100, \"objective\": \"reg:squarederror\", \"max_depth\": null, \"learning_rate\": null, \"verbosity\": null, \"booster\": null, \"tree_method\": null, \"gamma\": null, \"min_child_weight\": null, \"max_delta_step\": null, \"subsample\": null, \"colsample_bytree\": null, \"colsample_bylevel\": null, \"colsample_bynode\": null, \"reg_alpha\": null, \"reg_lambda\": null, \"scale_pos_weight\": null, \"base_score\": null, \"missing\": NaN, \"num_parallel_tree\": null, \"random_state\": null, \"n_jobs\": null, \"monotone_constraints\": null, \"interaction_constraints\": null, \"importance_type\": null, \"gpu_id\": null, \"validate_parameters\": null, \"predictor\": null, \"enable_categorical\": false, \"_estimator_type\": \"regressor\"}"},"feature_names":[],"feature_types":[],"gradient_booster":{"model":{"gbtree_model_param":{"num_trees":"100","size_leaf_vector":"0"},"tree_info":[0,0,0,0,0,0,0,0,0,0,0,0,0,0,0,0,0,0,0,0,0,0,0,0,0,0,0,0,0,0,0,0,0,0,0,0,0,0,0,0,0,0,0,0,0,0,0,0,0,0,0,0,0,0,0,0,0,0,0,0,0,0,0,0,0,0,0,0,0,0,0,0,0,0,0,0,0,0,0,0,0,0,0,0,0,0,0,0,0,0,0,0,0,0,0,0,0,0,0,0],"trees":[{"base_weights":[-1.1288267E-1,9.228272E-2,-3.2154304E-1,1.5733485E-1,-1.1574628E-2,-2.962785E-1,-3.4675694E-1,1.9978972E-1,-2.6016308E-3,-2.8744167E-2,1.3465907E-1,-2.7456033E-1,-3.083667E-1,-3.9954045E-1,-2.817643E-1,1.685367E-1,2.7548286E-1,-1.7726588E-1,1.5526003E-1,-6.2911753E-3,-1.0480173E-1,1.877462E-1,-4.152403E-3,-2.5750014E-1,-2.9127237E-1,-3.0145556E-1,-3.1554827E-1,-3.927056E-1,-4.0604234E-1,-2.636844E-1,-2.9955104E-1,1.4274678E-1,2.115377E-1,3.563766E-1,1.3118593E-1,-2.3872875E-1,-1.1284466E-1,5.0579373E-2,2.4663638E-1,-2.0127041E-2,4.254556E-2,-2.6076132E-1,2.2615757E-2,1.7952771E-1,2.3206769E-1,-1.7128158E-1,1.44419E-1,-1.0439335E-2,-4.0323973E-2,4.150463E-2,4.6457406E-2,-2.6785064E-1,-2.5430185E-1,-6.879104E-2,8.327373E-2],"categories":[],"categories_nodes":[],"categories_segments":[],"categories_sizes":[],"default_left":[true,true,true,true,true,true,true,true,true,true,true,true,true,true,true,true,true,true,true,true,true,true,true,false,false,false,false,false,false,false,false,false,false,false,false,false,false,false,false,true,true,true,true,false,false,false,false,false,false,false,false,false,false,false,false],"id":0,"left_children":[1,3,5,7,9,11,13,15,17,19,21,23,25,27,29,31,33,35,37,39,41,43,45,-1,-1,-1,-1,-1,-1,-1,-1,-1,-1,-1,-1,-1,-1,-1,-1,47,49,51,53,-1,-1,-1,-1,-1,-1,-1,-1,-1,-1,-1,-1],"loss_changes":[4.8836533E3,3.8862183E2,3.5925293E1,2.401521E2,5.5627357E1,7.33374E0,9.69751E1,6.60708E1,2.0461763E2,3.38583E1,1.7156052E1,2.8082886E0,8.05542E-1,5.344238E-1,4.0009766E0,2.1910095E1,9.5272644E1,1.3922424E1,3.727321E1,1.0345125E1,8.980737E1,5.71743E-1,1.6040483E1,0E0,0E0,0E0,0E0,0E0,0E0,0E0,0E0,0E0,0E0,0E0,0E0,0E0,0E0,0E0,0E0,2.3338256E0,1.1835098E-2,2.4932861E-2,1.3800571E1,0E0,0E0,0E0,0E0,0E0,0E0,0E0,0E0,0E0,0E0,0E0,0E0],"parents":[2147483647,0,0,1,1,2,2,3,3,4,4,5,5,6,6,7,7,8,8,9,9,10,10,11,11,12,12,13,13,14,14,15,15,16,16,17,17,18,18,19,19,20,20,21,21,22,22,39,39,40,40,41,41,42,42],"right_children":[2,4,6,8,10,12,14,16,18,20,22,24,26,28,30,32,34,36,38,40,42,44,46,-1,-1,-1,-1,-1,-1,-1,-1,-1,-1,-1,-1,-1,-1,-1,-1,48,50,52,54,-1,-1,-1,-1,-1,-1,-1,-1,-1,-1,-1,-1],"split_conditions":[-2.945432E-1,8.149115E-1,3.0899632E-1,3.0899632E-1,2.7076497E0,-5.9934425E-1,1.2173369E0,-5.9934425E-1,1.2173369E0,3.0899632E-1,3.0899632E-1,9.118013E-1,9.118013E-1,9.118013E-1,9.118013E-1,1.839987E-1,1.839987E-1,1.839987E-1,1.839987E-1,2.076737E0,1.2173369E0,-5.9934425E-1,1.2173369E0,-7.725005E-2,-8.738171E-2,-9.043667E-2,-9.4664484E-2,-1.1781168E-1,-1.2181271E-1,-7.910532E-2,-8.986531E-2,4.2824034E-2,6.346131E-2,1.0691298E-1,3.935578E-2,-7.1618624E-2,-3.38534E-2,1.5173812E-2,7.399092E-2,-5.9934425E-1,-5.9934425E-1,1.4458241E0,1.4458241E0,5.3858317E-2,6.962031E-2,-5.1384475E-2,4.33257E-2,-3.1318008E-3,-1.2097192E-2,1.2451389E-2,1.3937223E-2,-8.03552E-2,-7.6290555E-2,-2.0637313E-2,2.498212E-2],"split_indices":[1,2,0,0,2,0,0,0,0,0,0,1,1,1,1,2,2,2,2,2,0,0,0,0,0,0,0,0,0,0,0,0,0,0,0,0,0,0,0,0,0,2,2,0,0,0,0,0,0,0,0,0,0,0,0],"split_type":[0,0,0,0,0,0,0,0,0,0,0,0,0,0,0,0,0,0,0,0,0,0,0,0,0,0,0,0,0,0,0,0,0,0,0,0,0,0,0,0,0,0,0,0,0,0,0,0,0,0,0,0,0,0,0],"sum_hessian":[1.14076E5,5.752E4,5.6556E4,3.5367E4,2.2153E4,2.8256E4,2.83E4,2.7948E4,7.419E3,1.9826E4,2.327E3,1.0112E4,1.8144E4,1.5614E4,1.2686E4,1.9783E4,8.165E3,3.522E3,3.897E3,1.5308E4,4.518E3,1.683E3,6.44E2,5.012E3,5.1E3,9.268E3,8.876E3,7.642E3,7.972E3,6.299E3,6.387E3,1.2369E4,7.414E3,5.231E3,2.934E3,1.801E3,1.721E3,1.817E3,2.08E3,1.1929E4,3.379E3,2.031E3,2.487E3,1.424E3,2.59E2,3.03E2,3.41E2,8.063E3,3.866E3,2.678E3,7.01E2,9.49E2,1.082E3,9.92E2,1.495E3],"tree_param":{"num_deleted":"0","num_feature":"3","num_nodes":"55","size_leaf_vector":"0"}},{"base_weights":[-7.902266E-2,6.460157E-2,-2.2509354E-1,1.10141076E-1,-8.103403E-3,-2.0740734E-1,-2.427443E-1,1.3986185E-1,-1.823341E-3,-2.0128038E-2,9.431091E-2,-1.9220848E-1,-2.1586688E-1,-2.7969366E-1,-1.9724832E-1,1.1798106E-1,1.9285592E-1,-1.24116056E-1,1.0870489E-1,-4.4030976E-3,-7.33949E-2,1.3149564E-1,-2.9191847E-3,-1.8026549E-1,-2.0390777E-1,-2.1102865E-1,-2.2089446E-1,-2.7490932E-1,-2.842449E-1,-1.8459164E-1,-2.096998E-1,9.992621E-2,1.4808497E-1,2.4948405E-1,9.184358E-2,-1.6714987E-1,-7.9010904E-2,3.541393E-2,1.7268099E-1,-1.4090205E-2,2.978968E-2,-1.8261E-1,1.5832786E-2,1.2570718E-1,1.6271515E-1,-1.2006613E-1,1.0121997E-1,-7.307917E-3,-2.822992E-2,2.9057866E-2,3.2540027E-2,-1.8519217E-1,-1.7261776E-1,-4.817452E-2,5.8308333E-2],"categories":[],"categories_nodes":[],"categories_segments":[],"categories_sizes":[],"default_left":[true,true,true,true,true,true,true,true,true,true,true,true,true,true,true,true,true,true,true,true,true,true,true,false,false,false,false,false,false,false,false,false,false,false,false,false,false,false,false,true,true,true,true,false,false,false,false,false,false,false,false,false,false,false,false],"id":1,"left_children":[1,3,5,7,9,11,13,15,17,19,21,23,25,27,29,31,33,35,37,39,41,43,45,-1,-1,-1,-1,-1,-1,-1,-1,-1,-1,-1,-1,-1,-1,-1,-1,47,49,51,53,-1,-1,-1,-1,-1,-1,-1,-1,-1,-1,-1,-1],"loss_changes":[2.393272E3,1.9044997E2,1.7605469E1,1.1769324E2,2.728443E1,3.5915527E0,4.752014E1,3.238556E1,1.0030813E2,1.6607136E1,8.417212E0,1.3762817E0,3.947754E-1,2.6184082E-1,1.9606934E0,1.0738251E1,4.6687744E1,6.8251E0,1.82711E1,5.071206E0,4.4040604E1,2.8386688E-1,7.8808846E0,0E0,0E0,0E0,0E0,0E0,0E0,0E0,0E0,0E0,0E0,0E0,0E0,0E0,0E0,0E0,0E0,1.1438763E0,5.8574677E-3,2.0462036E-2,6.767048E0,0E0,0E0,0E0,0E0,0E0,0E0,0E0,0E0,0E0,0E0,0E0,0E0],"parents":[2147483647,0,0,1,1,2,2,3,3,4,4,5,5,6,6,7,7,8,8,9,9,10,10,11,11,12,12,13,13,14,14,15,15,16,16,17,17,18,18,19,19,20,20,21,21,22,22,39,39,40,40,41,41,42,42],"right_children":[2,4,6,8,10,12,14,16,18,20,22,24,26,28,30,32,34,36,38,40,42,44,46,-1,-1,-1,-1,-1,-1,-1,-1,-1,-1,-1,-1,-1,-1,-1,-1,48,50,52,54,-1,-1,-1,-1,-1,-1,-1,-1,-1,-1,-1,-1],"split_conditions":[-2.945432E-1,8.149115E-1,3.0899632E-1,3.0899632E-1,2.7076497E0,-5.9934425E-1,1.2173369E0,-5.9934425E-1,1.2173369E0,3.0899632E-1,3.0899632E-1,9.118013E-1,9.118013E-1,9.118013E-1,9.118013E-1,1.839987E-1,1.839987E-1,1.839987E-1,1.839987E-1,2.076737E0,1.2173369E0,-5.9934425E-1,1.2173369E0,-5.4079648E-2,-6.1172333E-2,-6.33086E-2,-6.626834E-2,-8.24728E-2,-8.5273474E-2,-5.5377495E-2,-6.290994E-2,2.9977864E-2,4.442549E-2,7.484522E-2,2.7553076E-2,-5.0144963E-2,-2.3703272E-2,1.0624179E-2,5.18043E-2,-5.9934425E-1,-5.9934425E-1,2.076737E0,1.4458241E0,3.7712157E-2,4.8814546E-2,-3.601984E-2,3.036599E-2,-2.1923753E-3,-8.468976E-3,8.71736E-3,9.762009E-3,-5.5557653E-2,-5.178533E-2,-1.4452356E-2,1.7492501E-2],"split_indices":[1,2,0,0,2,0,0,0,0,0,0,1,1,1,1,2,2,2,2,2,0,0,0,0,0,0,0,0,0,0,0,0,0,0,0,0,0,0,0,0,0,2,2,0,0,0,0,0,0,0,0,0,0,0,0],"split_type":[0,0,0,0,0,0,0,0,0,0,0,0,0,0,0,0,0,0,0,0,0,0,0,0,0,0,0,0,0,0,0,0,0,0,0,0,0,0,0,0,0,0,0,0,0,0,0,0,0,0,0,0,0,0,0],"sum_hessian":[1.14076E5,5.752E4,5.6556E4,3.5367E4,2.2153E4,2.8256E4,2.83E4,2.7948E4,7.419E3,1.9826E4,2.327E3,1.0112E4,1.8144E4,1.5614E4,1.2686E4,1.9783E4,8.165E3,3.522E3,3.897E3,1.5308E4,4.518E3,1.683E3,6.44E2,5.012E3,5.1E3,9.268E3,8.876E3,7.642E3,7.972E3,6.299E3,6.387E3,1.2369E4,7.414E3,5.231E3,2.934E3,1.801E3,1.721E3,1.817E3,2.08E3,1.1929E4,3.379E3,2.031E3,2.487E3,1.424E3,2.59E2,3.03E2,3.41E2,8.063E3,3.866E3,2.678E3,7.01E2,1.6E3,4.31E2,9.92E2,1.495E3],"tree_param":{"num_deleted":"0","num_feature":"3","num_nodes":"55","size_leaf_vector":"0"}},{"base_weights":[-5.53192E-2,4.5223705E-2,-1.5757486E-1,7.7103436E-2,-5.673082E-3,-1.4519379E-1,-1.6993111E-1,9.790962E-2,-1.2778746E-3,-1.4094486E-2,6.605237E-2,-1.3455734E-1,-1.5111394E-1,-1.9579631E-1,-1.3808316E-1,8.2590505E-2,1.350117E-1,-8.690219E-2,7.610944E-2,-3.0816528E-3,-5.1399503E-2,9.209833E-2,-2.0522054E-3,-1.2619662E-1,-1.4274742E-1,-1.4772688E-1,-1.5463357E-1,-1.924473E-1,-1.9898213E-1,-1.2922294E-1,-1.4679971E-1,6.995078E-2,1.0366546E-1,1.7465316E-1,6.429989E-2,-1.1703273E-1,-5.5321395E-2,2.47956E-2,1.2090158E-1,-9.864032E-3,2.0858249E-2,-1.2787984E-1,1.1084195E-2,8.802149E-2,1.14088364E-1,-8.416478E-2,7.094275E-2,-5.115811E-3,-1.9763125E-2,2.0343762E-2,2.279194E-2,-1.3208087E-1,-1.2407665E-1,-3.3736702E-2,4.0827554E-2],"categories":[],"categories_nodes":[],"categories_segments":[],"categories_sizes":[],"default_left":[true,true,true,true,true,true,true,true,true,true,true,true,true,true,true,true,true,true,true,true,true,true,true,false,false,false,false,false,false,false,false,false,false,false,false,false,false,false,false,true,true,true,true,false,false,false,false,false,false,false,false,false,false,false,false],"id":2,"left_children":[1,3,5,7,9,11,13,15,17,19,21,23,25,27,29,31,33,35,37,39,41,43,45,-1,-1,-1,-1,-1,-1,-1,-1,-1,-1,-1,-1,-1,-1,-1,-1,47,49,51,53,-1,-1,-1,-1,-1,-1,-1,-1,-1,-1,-1,-1],"loss_changes":[1.172842E3,9.333261E1,8.627686E0,5.7678833E1,1.3382589E1,1.7589722E0,2.328601E1,1.5874237E1,4.9173286E1,8.145446E0,4.1297092E0,6.74469E-1,1.9348145E-1,1.282959E-1,9.608612E-1,5.262848E0,2.2879059E1,3.3458252E0,8.956387E0,2.4859204E0,2.1596699E1,1.4092827E-1,3.8719745E0,0E0,0E0,0E0,0E0,0E0,0E0,0E0,0E0,0E0,0E0,0E0,0E0,0E0,0E0,0E0,0E0,5.606456E-1,2.8990507E-3,1.6078949E-2,3.31819E0,0E0,0E0,0E0,0E0,0E0,0E0,0E0,0E0,0E0,0E0,0E0,0E0],"parents":[2147483647,0,0,1,1,2,2,3,3,4,4,5,5,6,6,7,7,8,8,9,9,10,10,11,11,12,12,13,13,14,14,15,15,16,16,17,17,18,18,19,19,20,20,21,21,22,22,39,39,40,40,41,41,42,42],"right_children":[2,4,6,8,10,12,14,16,18,20,22,24,26,28,30,32,34,36,38,40,42,44,46,-1,-1,-1,-1,-1,-1,-1,-1,-1,-1,-1,-1,-1,-1,-1,-1,48,50,52,54,-1,-1,-1,-1,-1,-1,-1,-1,-1,-1,-1,-1],"split_conditions":[-2.945432E-1,8.149115E-1,3.0899632E-1,3.0899632E-1,2.7076497E0,-5.9934425E-1,1.2173369E0,-5.9934425E-1,1.2173369E0,3.0899632E-1,3.0899632E-1,9.118013E-1,9.118013E-1,9.118013E-1,9.118013E-1,1.839987E-1,1.839987E-1,1.839987E-1,1.839987E-1,2.076737E0,1.2173369E0,-5.9934425E-1,1.2173369E0,-3.785899E-2,-4.2824227E-2,-4.4318065E-2,-4.639007E-2,-5.7734195E-2,-5.9694644E-2,-3.8766883E-2,-4.4039916E-2,2.0985235E-2,3.109964E-2,5.239595E-2,1.9289967E-2,-3.510982E-2,-1.659642E-2,7.43868E-3,3.6270473E-2,-5.9934425E-1,-5.9934425E-1,1.4458241E0,1.4458241E0,2.6406446E-2,3.422651E-2,-2.5249436E-2,2.1282826E-2,-1.5347434E-3,-5.928938E-3,6.1031287E-3,6.8375827E-3,-3.9624263E-2,-3.7222996E-2,-1.0121011E-2,1.22482665E-2],"split_indices":[1,2,0,0,2,0,0,0,0,0,0,1,1,1,1,2,2,2,2,2,0,0,0,0,0,0,0,0,0,0,0,0,0,0,0,0,0,0,0,0,0,2,2,0,0,0,0,0,0,0,0,0,0,0,0],"split_type":[0,0,0,0,0,0,0,0,0,0,0,0,0,0,0,0,0,0,0,0,0,0,0,0,0,0,0,0,0,0,0,0,0,0,0,0,0,0,0,0,0,0,0,0,0,0,0,0,0,0,0,0,0,0,0],"sum_hessian":[1.14076E5,5.752E4,5.6556E4,3.5367E4,2.2153E4,2.8256E4,2.83E4,2.7948E4,7.419E3,1.9826E4,2.327E3,1.0112E4,1.8144E4,1.5614E4,1.2686E4,1.9783E4,8.165E3,3.522E3,3.897E3,1.5308E4,4.518E3,1.683E3,6.44E2,5.012E3,5.1E3,9.268E3,8.876E3,7.642E3,7.972E3,6.299E3,6.387E3,1.2369E4,7.414E3,5.231E3,2.934E3,1.801E3,1.721E3,1.817E3,2.08E3,1.1929E4,3.379E3,2.031E3,2.487E3,1.424E3,2.59E2,3.03E2,3.41E2,8.063E3,3.866E3,2.678E3,7.01E2,9.49E2,1.082E3,9.92E2,1.495E3],"tree_param":{"num_deleted":"0","num_feature":"3","num_nodes":"55","size_leaf_vector":"0"}},{"base_weights":[-3.8725797E-2,3.1658385E-2,-1.10308975E-1,5.397568E-2,-3.971736E-3,-1.0164172E-1,-1.1895885E-1,6.854117E-2,-8.9559506E-4,-9.869643E-3,4.626098E-2,-9.41981E-2,-1.05784774E-1,-1.3706493E-1,-9.666474E-2,5.7815988E-2,9.451697E-2,-6.0846217E-2,5.3287815E-2,-2.156812E-3,-3.5996187E-2,6.450482E-2,-1.4427128E-3,-8.834518E-2,-9.993158E-2,-1.0341362E-1,-1.0824873E-1,-1.3472067E-1,-1.3929497E-1,-9.04622E-2,-1.027667E-1,4.896723E-2,7.257005E-2,1.2226724E-1,4.501649E-2,-8.1942394E-2,-3.8734626E-2,1.7361032E-2,8.464851E-2,-6.9054565E-3,1.4604574E-2,-8.95537E-2,7.759788E-3,6.163355E-2,7.999347E-2,-5.8998417E-2,4.972213E-2,-3.5812685E-3,-1.3835724E-2,1.4242882E-2,1.5964074E-2,-9.104612E-2,-8.381547E-2,-2.3625875E-2,2.8587464E-2],"categories":[],"categories_nodes":[],"categories_segments":[],"categories_sizes":[],"default_left":[true,true,true,true,true,true,true,true,true,true,true,true,true,true,true,true,true,true,true,true,true,true,true,false,false,false,false,false,false,false,false,false,false,false,false,false,false,false,false,true,true,true,true,false,false,false,false,false,false,false,false,false,false,false,false],"id":3,"left_children":[1,3,5,7,9,11,13,15,17,19,21,23,25,27,29,31,33,35,37,39,41,43,45,-1,-1,-1,-1,-1,-1,-1,-1,-1,-1,-1,-1,-1,-1,-1,-1,47,49,51,53,-1,-1,-1,-1,-1,-1,-1,-1,-1,-1,-1,-1],"loss_changes":[5.747603E2,4.5739067E1,4.2280273E0,2.826712E1,6.5639744E0,8.614502E-1,1.1410706E1,7.7809906E0,2.4105846E1,3.995253E0,2.0261478E0,3.305359E-1,9.480286E-2,6.286621E-2,4.708786E-1,2.5793457E0,1.1211731E1,1.6401997E0,4.3903637E0,1.2186033E0,1.05907955E1,6.9960594E-2,1.902348E0,0E0,0E0,0E0,0E0,0E0,0E0,0E0,0E0,0E0,0E0,0E0,0E0,0E0,0E0,0E0,0E0,2.7478796E-1,1.4346242E-3,9.771347E-3,1.6270572E0,0E0,0E0,0E0,0E0,0E0,0E0,0E0,0E0,0E0,0E0,0E0,0E0],"parents":[2147483647,0,0,1,1,2,2,3,3,4,4,5,5,6,6,7,7,8,8,9,9,10,10,11,11,12,12,13,13,14,14,15,15,16,16,17,17,18,18,19,19,20,20,21,21,22,22,39,39,40,40,41,41,42,42],"right_children":[2,4,6,8,10,12,14,16,18,20,22,24,26,28,30,32,34,36,38,40,42,44,46,-1,-1,-1,-1,-1,-1,-1,-1,-1,-1,-1,-1,-1,-1,-1,-1,48,50,52,54,-1,-1,-1,-1,-1,-1,-1,-1,-1,-1,-1,-1],"split_conditions":[-2.945432E-1,8.149115E-1,3.0899632E-1,3.0899632E-1,2.7076497E0,-5.9934425E-1,1.2173369E0,-5.9934425E-1,1.2173369E0,3.0899632E-1,3.0899632E-1,9.118013E-1,9.118013E-1,9.118013E-1,9.118013E-1,1.839987E-1,1.839987E-1,1.839987E-1,1.839987E-1,2.076737E0,1.2173369E0,-5.9934425E-1,1.2173369E0,-2.6503554E-2,-2.9979477E-2,-3.1024087E-2,-3.2474622E-2,-4.0416203E-2,-4.1788492E-2,-2.7138662E-2,-3.083001E-2,1.469017E-2,2.1771016E-2,3.6680173E-2,1.3504948E-2,-2.458272E-2,-1.1620388E-2,5.2083097E-3,2.5394555E-2,-5.9934425E-1,-5.9934425E-1,2.076737E0,1.4458241E0,1.8490065E-2,2.3998043E-2,-1.7699527E-2,1.491664E-2,-1.0743806E-3,-4.1507175E-3,4.2728647E-3,4.7892225E-3,-2.7313836E-2,-2.5144642E-2,-7.087763E-3,8.576239E-3],"split_indices":[1,2,0,0,2,0,0,0,0,0,0,1,1,1,1,2,2,2,2,2,0,0,0,0,0,0,0,0,0,0,0,0,0,0,0,0,0,0,0,0,0,2,2,0,0,0,0,0,0,0,0,0,0,0,0],"split_type":[0,0,0,0,0,0,0,0,0,0,0,0,0,0,0,0,0,0,0,0,0,0,0,0,0,0,0,0,0,0,0,0,0,0,0,0,0,0,0,0,0,0,0,0,0,0,0,0,0,0,0,0,0,0,0],"sum_hessian":[1.14076E5,5.752E4,5.6556E4,3.5367E4,2.2153E4,2.8256E4,2.83E4,2.7948E4,7.419E3,1.9826E4,2.327E3,1.0112E4,1.8144E4,1.5614E4,1.2686E4,1.9783E4,8.165E3,3.522E3,3.897E3,1.5308E4,4.518E3,1.683E3,6.44E2,5.012E3,5.1E3,9.268E3,8.876E3,7.642E3,7.972E3,6.299E3,6.387E3,1.2369E4,7.414E3,5.231E3,2.934E3,1.801E3,1.721E3,1.817E3,2.08E3,1.1929E4,3.379E3,2.031E3,2.487E3,1.424E3,2.59E2,3.03E2,3.41E2,8.063E3,3.866E3,2.678E3,7.01E2,1.6E3,4.31E2,9.92E2,1.495E3],"tree_param":{"num_deleted":"0","num_feature":"3","num_nodes":"55","size_leaf_vector":"0"}},{"base_weights":[-2.710969E-2,2.216215E-2,-7.722088E-2,3.7785273E-2,-2.7805553E-3,-7.115344E-2,-8.327615E-2,4.7981925E-2,-6.2767195E-4,-1.091856E-2,1.566264E-2,-6.5944254E-2,-7.4052826E-2,-9.5950715E-2,-6.76699E-2,4.047304E-2,6.616804E-2,-4.2602625E-2,3.730932E-2,-4.834264E-3,-3.1997487E-2,6.9149695E-3,3.2399736E-2,-6.1846904E-2,-6.9957994E-2,-7.2392866E-2,-7.5777754E-2,-9.430975E-2,-9.751172E-2,-6.3327864E-2,-7.1941525E-2,3.4278255E-2,5.0801966E-2,8.559409E-2,3.151617E-2,-5.7373323E-2,-2.7120972E-2,1.2155583E-2,5.9266154E-2,-2.5070328E-3,-9.686076E-3,-6.374935E-2,-4.397522E-3,2.4120961E-3,3.3468433E-2,4.5178596E-2,-1.0142165E-3,-2.234461E-3,-2.8564963E-3,-1.3083839E-2,7.6061377E-4,-6.521322E-2,-6.1518632E-2,-1.654525E-2,9.782373E-3,1.0225871E-2,-5.8729038E-2,4.315645E-2,5.608775E-2,-4.13571E-2,3.484909E-2],"categories":[],"categories_nodes":[],"categories_segments":[],"categories_sizes":[],"default_left":[true,true,true,true,true,true,true,true,true,true,true,true,true,true,true,true,true,true,true,true,true,true,true,false,false,false,false,false,false,false,false,false,false,false,false,false,false,false,false,true,true,true,true,true,false,true,true,false,false,false,false,false,false,false,false,false,false,false,false,false,false],"id":4,"left_children":[1,3,5,7,9,11,13,15,17,19,21,23,25,27,29,31,33,35,37,39,41,43,45,-1,-1,-1,-1,-1,-1,-1,-1,-1,-1,-1,-1,-1,-1,-1,-1,47,49,51,53,55,-1,57,59,-1,-1,-1,-1,-1,-1,-1,-1,-1,-1,-1,-1,-1,-1],"loss_changes":[2.816659E2,2.2415058E1,2.071991E0,1.3853088E1,3.325283E0,4.2189026E-1,5.5914917E0,3.8139648E0,1.1817222E1,1.9713109E0,9.928789E-1,1.619873E-1,4.6470642E-2,3.0807495E-2,2.3075867E-1,1.2641449E0,5.494236E0,8.040657E-1,2.152131E0,1.3468081E-1,3.0169935E0,5.3270924E-1,9.9408364E-1,0E0,0E0,0E0,0E0,0E0,0E0,0E0,0E0,0E0,0E0,0E0,0E0,0E0,0E0,0E0,0E0,7.6174363E-4,1.3727054E-1,1.2164116E-3,3.1762505E-1,1.8212793E0,0E0,3.4728527E-2,9.3464607E-1,0E0,0E0,0E0,0E0,0E0,0E0,0E0,0E0,0E0,0E0,0E0,0E0,0E0,0E0],"parents":[2147483647,0,0,1,1,2,2,3,3,4,4,5,5,6,6,7,7,8,8,9,9,10,10,11,11,12,12,13,13,14,14,15,15,16,16,17,17,18,18,19,19,20,20,21,21,22,22,39,39,40,40,41,41,42,42,43,43,45,45,46,46],"right_children":[2,4,6,8,10,12,14,16,18,20,22,24,26,28,30,32,34,36,38,40,42,44,46,-1,-1,-1,-1,-1,-1,-1,-1,-1,-1,-1,-1,-1,-1,-1,-1,48,50,52,54,56,-1,58,60,-1,-1,-1,-1,-1,-1,-1,-1,-1,-1,-1,-1,-1,-1],"split_conditions":[-2.945432E-1,8.149115E-1,3.0899632E-1,3.0899632E-1,2.076737E0,-5.9934425E-1,1.2173369E0,-5.9934425E-1,1.2173369E0,3.0899632E-1,2.7076497E0,9.118013E-1,9.118013E-1,9.118013E-1,9.118013E-1,1.839987E-1,1.839987E-1,1.839987E-1,1.839987E-1,-5.9934425E-1,1.2173369E0,1.2173369E0,3.0899632E-1,-1.8554073E-2,-2.0987399E-2,-2.1717861E-2,-2.2733327E-2,-2.8292926E-2,-2.9253518E-2,-1.899836E-2,-2.1582458E-2,1.0283477E-2,1.524059E-2,2.5678227E-2,9.454851E-3,-1.7211998E-2,-8.136292E-3,3.646675E-3,1.7779848E-2,1.4458241E0,1.4458241E0,1.4458241E0,1.4458241E0,3.0899632E-1,1.004053E-2,-5.9934425E-1,1.2173369E0,-6.7033834E-4,-8.569489E-4,-3.9251517E-3,2.2818414E-4,-1.9563965E-2,-1.8455591E-2,-4.963575E-3,2.934712E-3,3.0677614E-3,-1.7618712E-2,1.2946935E-2,1.6826326E-2,-1.2407131E-2,1.0454727E-2],"split_indices":[1,2,0,0,2,0,0,0,0,0,2,1,1,1,1,2,2,2,2,0,0,0,0,0,0,0,0,0,0,0,0,0,0,0,0,0,0,0,0,2,2,2,2,0,0,0,0,0,0,0,0,0,0,0,0,0,0,0,0,0,0],"split_type":[0,0,0,0,0,0,0,0,0,0,0,0,0,0,0,0,0,0,0,0,0,0,0,0,0,0,0,0,0,0,0,0,0,0,0,0,0,0,0,0,0,0,0,0,0,0,0,0,0,0,0,0,0,0,0,0,0,0,0,0,0],"sum_hessian":[1.14076E5,5.752E4,5.6556E4,3.5367E4,2.2153E4,2.8256E4,2.83E4,2.7948E4,7.419E3,1.5371E4,6.782E3,1.0112E4,1.8144E4,1.5614E4,1.2686E4,1.9783E4,8.165E3,3.522E3,3.897E3,1.1929E4,3.442E3,4.455E3,2.327E3,5.012E3,5.1E3,9.268E3,8.876E3,7.642E3,7.972E3,6.299E3,6.387E3,1.2369E4,7.414E3,5.231E3,2.934E3,1.801E3,1.721E3,1.817E3,2.08E3,8.063E3,3.866E3,1.6E3,1.842E3,3.81E3,6.45E2,1.683E3,6.44E2,4.534E3,3.529E3,2.917E3,9.49E2,9.49E2,6.51E2,9.92E2,8.5E2,3.379E3,4.31E2,1.424E3,2.59E2,3.03E2,3.41E2],"tree_param":{"num_deleted":"0","num_feature":"3","num_nodes":"61","size_leaf_vector":"0"}},{"base_weights":[-1.8978074E-2,1.5514112E-2,-5.4057837E-2,2.6451297E-2,-1.9473779E-3,-4.9810383E-2,-5.8296777E-2,3.358952E-2,-4.3988822E-4,-7.6459385E-3,1.0967294E-2,-4.6164896E-2,-5.1839426E-2,-6.716919E-2,-4.7372133E-2,2.8332414E-2,4.6321936E-2,-2.9829023E-2,2.6122032E-2,-3.3844265E-3,-2.2409862E-2,4.83949E-3,2.2691745E-2,-4.3296546E-2,-4.8974715E-2,-5.0677348E-2,-5.3046983E-2,-6.6020526E-2,-6.826188E-2,-4.4332523E-2,-5.036245E-2,2.3995617E-2,3.5563413E-2,5.9920777E-2,2.2064546E-2,-4.017087E-2,-1.8989393E-2,8.510917E-3,4.1494872E-2,-1.7551117E-3,-6.7812223E-3,-4.4648286E-2,-3.079355E-3,1.6846756E-3,2.3443453E-2,3.1642668E-2,-7.129752E-4,-1.5642627E-3,-1.999799E-3,-9.160045E-3,5.326554E-4,-4.5669843E-2,-4.309134E-2,-1.1586667E-2,6.851127E-3,7.1590464E-3,-4.1151106E-2,3.0218568E-2,3.932613E-2,-2.8990788E-2,2.4424944E-2],"categories":[],"categories_nodes":[],"categories_segments":[],"categories_sizes":[],"default_left":[true,true,true,true,true,true,true,true,true,true,true,true,true,true,true,true,true,true,true,true,true,true,true,false,false,false,false,false,false,false,false,false,false,false,false,false,false,false,false,true,true,true,true,true,false,true,true,false,false,false,false,false,false,false,false,false,false,false,false,false,false],"id":5,"left_children":[1,3,5,7,9,11,13,15,17,19,21,23,25,27,29,31,33,35,37,39,41,43,45,-1,-1,-1,-1,-1,-1,-1,-1,-1,-1,-1,-1,-1,-1,-1,-1,47,49,51,53,55,-1,57,59,-1,-1,-1,-1,-1,-1,-1,-1,-1,-1,-1,-1,-1,-1],"loss_changes":[1.3803146E2,1.0985387E1,1.0153809E0,6.7890873E0,1.6305083E0,2.0661926E-1,2.739975E0,1.8694725E0,5.7930675E0,9.6707875E-1,4.872157E-1,7.938576E-2,2.2777557E-2,1.5090942E-2,1.13082886E-1,6.1956024E-1,2.6924152E0,3.941717E-1,1.0549634E0,6.601408E-2,1.4799393E0,2.614923E-1,4.8772418E-1,0E0,0E0,0E0,0E0,0E0,0E0,0E0,0E0,0E0,0E0,0E0,0E0,0E0,0E0,0E0,0E0,3.734473E-4,6.728454E-2,5.784035E-4,1.5577917E-1,8.9397013E-1,0E0,1.723802E-2,4.5920336E-1,0E0,0E0,0E0,0E0,0E0,0E0,0E0,0E0,0E0,0E0,0E0,0E0,0E0,0E0],"parents":[2147483647,0,0,1,1,2,2,3,3,4,4,5,5,6,6,7,7,8,8,9,9,10,10,11,11,12,12,13,13,14,14,15,15,16,16,17,17,18,18,19,19,20,20,21,21,22,22,39,39,40,40,41,41,42,42,43,43,45,45,46,46],"right_children":[2,4,6,8,10,12,14,16,18,20,22,24,26,28,30,32,34,36,38,40,42,44,46,-1,-1,-1,-1,-1,-1,-1,-1,-1,-1,-1,-1,-1,-1,-1,-1,48,50,52,54,56,-1,58,60,-1,-1,-1,-1,-1,-1,-1,-1,-1,-1,-1,-1,-1,-1],"split_conditions":[-2.945432E-1,8.149115E-1,3.0899632E-1,3.0899632E-1,2.076737E0,-5.9934425E-1,1.2173369E0,-5.9934425E-1,1.2173369E0,3.0899632E-1,2.7076497E0,9.118013E-1,9.118013E-1,9.118013E-1,9.118013E-1,1.839987E-1,1.839987E-1,1.839987E-1,1.839987E-1,-5.9934425E-1,1.2173369E0,1.2173369E0,3.0899632E-1,-1.2988964E-2,-1.46924155E-2,-1.5203205E-2,-1.5914096E-2,-1.9806158E-2,-2.0478563E-2,-1.3299758E-2,-1.5108735E-2,7.1986853E-3,1.0669025E-2,1.7976234E-2,6.619364E-3,-1.2051262E-2,-5.696818E-3,2.5532753E-3,1.2448463E-2,1.4458241E0,1.4458241E0,1.4458241E0,1.4458241E0,3.0899632E-1,7.033036E-3,-5.9934425E-1,1.2173369E0,-4.692788E-4,-5.999397E-4,-2.7480135E-3,1.5979662E-4,-1.3700954E-2,-1.2927403E-2,-3.4760002E-3,2.0553381E-3,2.147714E-3,-1.2345333E-2,9.06557E-3,1.179784E-2,-8.697237E-3,7.3274835E-3],"split_indices":[1,2,0,0,2,0,0,0,0,0,2,1,1,1,1,2,2,2,2,0,0,0,0,0,0,0,0,0,0,0,0,0,0,0,0,0,0,0,0,2,2,2,2,0,0,0,0,0,0,0,0,0,0,0,0,0,0,0,0,0,0],"split_type":[0,0,0,0,0,0,0,0,0,0,0,0,0,0,0,0,0,0,0,0,0,0,0,0,0,0,0,0,0,0,0,0,0,0,0,0,0,0,0,0,0,0,0,0,0,0,0,0,0,0,0,0,0,0,0,0,0,0,0,0,0],"sum_hessian":[1.14076E5,5.752E4,5.6556E4,3.5367E4,2.2153E4,2.8256E4,2.83E4,2.7948E4,7.419E3,1.5371E4,6.782E3,1.0112E4,1.8144E4,1.5614E4,1.2686E4,1.9783E4,8.165E3,3.522E3,3.897E3,1.1929E4,3.442E3,4.455E3,2.327E3,5.012E3,5.1E3,9.268E3,8.876E3,7.642E3,7.972E3,6.299E3,6.387E3,1.2369E4,7.414E3,5.231E3,2.934E3,1.801E3,1.721E3,1.817E3,2.08E3,8.063E3,3.866E3,1.6E3,1.842E3,3.81E3,6.45E2,1.683E3,6.44E2,4.534E3,3.529E3,2.917E3,9.49E2,9.49E2,6.51E2,9.92E2,8.5E2,3.379E3,4.31E2,1.424E3,2.59E2,3.03E2,3.41E2],"tree_param":{"num_deleted":"0","num_feature":"3","num_nodes":"61","size_leaf_vector":"0"}},{"base_weights":[-1.328556E-2,1.0860294E-2,-3.784274E-2,1.8517021E-2,-1.3638632E-3,-3.4869347E-2,-4.0810168E-2,2.351417E-2,-3.0829952E-4,-5.354221E-3,7.679502E-3,-3.2318167E-2,-3.628931E-2,-4.702101E-2,-3.3162728E-2,1.983358E-2,3.2428365E-2,-2.088535E-2,1.8289251E-2,-2.3694073E-3,-1.569505E-2,3.3869166E-3,1.5892595E-2,-3.031018E-2,-3.428518E-2,-3.5475776E-2,-3.7134677E-2,-4.6216957E-2,-4.7785882E-2,-3.103487E-2,-3.525608E-2,1.6797509E-2,2.4895797E-2,4.194799E-2,1.5447406E-2,-2.8126305E-2,-1.3295868E-2,5.9590386E-3,2.9052366E-2,-1.2287134E-3,-4.7475263E-3,-3.1270422E-2,-2.156328E-3,1.17658E-3,1.642129E-2,2.2162259E-2,-5.0121034E-4,-1.0950987E-3,-1.4000207E-3,-6.4129736E-3,3.7302365E-4,-3.19833E-2,-3.0183757E-2,-8.114176E-3,4.7981953E-3,5.0119474E-3,-2.8834341E-2,2.1159362E-2,2.757366E-2,-2.0322155E-2,1.7118873E-2],"categories":[],"categories_nodes":[],"categories_segments":[],"categories_sizes":[],"default_left":[true,true,true,true,true,true,true,true,true,true,true,true,true,true,true,true,true,true,true,true,true,true,true,false,false,false,false,false,false,false,false,false,false,false,false,false,false,false,false,true,true,true,true,true,false,true,true,false,false,false,false,false,false,false,false,false,false,false,false,false,false],"id":6,"left_children":[1,3,5,7,9,11,13,15,17,19,21,23,25,27,29,31,33,35,37,39,41,43,45,-1,-1,-1,-1,-1,-1,-1,-1,-1,-1,-1,-1,-1,-1,-1,-1,47,49,51,53,55,-1,57,59,-1,-1,-1,-1,-1,-1,-1,-1,-1,-1,-1,-1,-1,-1],"loss_changes":[6.764283E1,5.3838205E0,4.9760437E-1,3.32718E0,7.9949623E-1,1.0118866E-1,1.3426552E0,9.1634846E-1,2.839888E0,4.7442654E-1,2.3908362E-1,3.890419E-2,1.1161804E-2,7.3928833E-3,5.541897E-2,3.0364656E-1,1.3194056E0,1.932329E-1,5.171362E-1,3.2356746E-2,7.259602E-1,1.2835962E-1,2.3929137E-1,0E0,0E0,0E0,0E0,0E0,0E0,0E0,0E0,0E0,0E0,0E0,0E0,0E0,0E0,0E0,0E0,1.8304586E-4,3.298019E-2,2.747774E-4,7.640178E-2,4.3880165E-1,0E0,8.55577E-3,2.2561201E-1,0E0,0E0,0E0,0E0,0E0,0E0,0E0,0E0,0E0,0E0,0E0,0E0,0E0,0E0],"parents":[2147483647,0,0,1,1,2,2,3,3,4,4,5,5,6,6,7,7,8,8,9,9,10,10,11,11,12,12,13,13,14,14,15,15,16,16,17,17,18,18,19,19,20,20,21,21,22,22,39,39,40,40,41,41,42,42,43,43,45,45,46,46],"right_children":[2,4,6,8,10,12,14,16,18,20,22,24,26,28,30,32,34,36,38,40,42,44,46,-1,-1,-1,-1,-1,-1,-1,-1,-1,-1,-1,-1,-1,-1,-1,-1,48,50,52,54,56,-1,58,60,-1,-1,-1,-1,-1,-1,-1,-1,-1,-1,-1,-1,-1,-1],"split_conditions":[-2.945432E-1,8.149115E-1,3.0899632E-1,3.0899632E-1,2.076737E0,-5.9934425E-1,1.2173369E0,-5.9934425E-1,1.2173369E0,3.0899632E-1,2.7076497E0,9.118013E-1,9.118013E-1,9.118013E-1,9.118013E-1,1.839987E-1,1.839987E-1,1.839987E-1,1.839987E-1,-5.9934425E-1,1.2173369E0,1.2173369E0,3.0899632E-1,-9.093055E-3,-1.0285554E-2,-1.0642733E-2,-1.1140403E-2,-1.3865088E-2,-1.43357655E-2,-9.310462E-3,-1.0576825E-2,5.039253E-3,7.468739E-3,1.2584398E-2,4.634222E-3,-8.4378915E-3,-3.9887605E-3,1.7877116E-3,8.71571E-3,1.4458241E0,1.4458241E0,1.4458241E0,1.4458241E0,3.0899632E-1,4.926387E-3,-5.9934425E-1,1.2173369E0,-3.2852963E-4,-4.2000622E-4,-1.9238922E-3,1.119071E-4,-9.594991E-3,-9.055127E-3,-2.4342528E-3,1.4394587E-3,1.5035843E-3,-8.650303E-3,6.347809E-3,8.272098E-3,-6.0966467E-3,5.135662E-3],"split_indices":[1,2,0,0,2,0,0,0,0,0,2,1,1,1,1,2,2,2,2,0,0,0,0,0,0,0,0,0,0,0,0,0,0,0,0,0,0,0,0,2,2,2,2,0,0,0,0,0,0,0,0,0,0,0,0,0,0,0,0,0,0],"split_type":[0,0,0,0,0,0,0,0,0,0,0,0,0,0,0,0,0,0,0,0,0,0,0,0,0,0,0,0,0,0,0,0,0,0,0,0,0,0,0,0,0,0,0,0,0,0,0,0,0,0,0,0,0,0,0,0,0,0,0,0,0],"sum_hessian":[1.14076E5,5.752E4,5.6556E4,3.5367E4,2.2153E4,2.8256E4,2.83E4,2.7948E4,7.419E3,1.5371E4,6.782E3,1.0112E4,1.8144E4,1.5614E4,1.2686E4,1.9783E4,8.165E3,3.522E3,3.897E3,1.1929E4,3.442E3,4.455E3,2.327E3,5.012E3,5.1E3,9.268E3,8.876E3,7.642E3,7.972E3,6.299E3,6.387E3,1.2369E4,7.414E3,5.231E3,2.934E3,1.801E3,1.721E3,1.817E3,2.08E3,8.063E3,3.866E3,1.6E3,1.842E3,3.81E3,6.45E2,1.683E3,6.44E2,4.534E3,3.529E3,2.917E3,9.49E2,9.49E2,6.51E2,9.92E2,8.5E2,3.379E3,4.31E2,1.424E3,2.59E2,3.03E2,3.41E2],"tree_param":{"num_deleted":"0","num_feature":"3","num_nodes":"61","size_leaf_vector":"0"}},{"base_weights":[-9.300528E-3,7.6024965E-3,-2.6491495E-2,1.29626915E-2,-9.5518987E-4,-2.441E-2,-2.856882E-2,1.646097E-2,-2.1606128E-4,-3.7493964E-3,5.377332E-3,-2.2624638E-2,-2.5403716E-2,-3.2916512E-2,-2.3215478E-2,1.3884115E-2,2.2701975E-2,-1.4623262E-2,1.2805176E-2,-1.658796E-3,-1.0992241E-2,2.370342E-3,1.113067E-2,-2.1218948E-2,-2.4001641E-2,-2.4834191E-2,-2.5995528E-2,-3.2353688E-2,-3.3451915E-2,-2.1725897E-2,-2.4680907E-2,1.1758641E-2,1.7428042E-2,2.9366003E-2,1.0814785E-2,-1.9693086E-2,-9.309413E-3,4.172299E-3,2.0340864E-2,-8.6018577E-4,-3.3237387E-3,-2.1900948E-2,-1.5099657E-3,8.217288E-4,1.1502532E-2,1.5522241E-2,-3.523287E-4,-7.666303E-4,-9.801331E-4,-4.4897418E-3,2.612307E-4,-2.2398425E-2,-2.1142509E-2,-5.6823734E-3,3.3604347E-3,3.5088055E-3,-2.0204062E-2,1.4815984E-2,1.9333368E-2,-1.4245551E-2,1.1998232E-2],"categories":[],"categories_nodes":[],"categories_segments":[],"categories_sizes":[],"default_left":[true,true,true,true,true,true,true,true,true,true,true,true,true,true,true,true,true,true,true,true,true,true,true,false,false,false,false,false,false,false,false,false,false,false,false,false,false,false,false,true,true,true,true,true,false,true,true,false,false,false,false,false,false,false,false,false,false,false,false,false,false],"id":7,"left_children":[1,3,5,7,9,11,13,15,17,19,21,23,25,27,29,31,33,35,37,39,41,43,45,-1,-1,-1,-1,-1,-1,-1,-1,-1,-1,-1,-1,-1,-1,-1,-1,47,49,51,53,55,-1,57,59,-1,-1,-1,-1,-1,-1,-1,-1,-1,-1,-1,-1,-1,-1],"loss_changes":[3.314862E1,2.6385505E0,2.4385071E-1,1.6305728E0,3.9202133E-1,4.9556732E-2,6.579323E-1,4.4916534E-1,1.392176E0,2.3274295E-1,1.1732109E-1,1.9066334E-2,5.470276E-3,3.6239624E-3,2.7157784E-2,1.488185E-1,6.4656544E-1,9.472728E-2,2.534982E-1,1.585975E-2,3.5610864E-1,6.300832E-2,1.1740279E-1,0E0,0E0,0E0,0E0,0E0,0E0,0E0,0E0,0E0,0E0,0E0,0E0,0E0,0E0,0E0,0E0,8.9740846E-5,1.6165566E-2,1.3053417E-4,3.747124E-2,2.1538445E-1,0E0,4.2462647E-3,1.1084589E-1,0E0,0E0,0E0,0E0,0E0,0E0,0E0,0E0,0E0,0E0,0E0,0E0,0E0,0E0],"parents":[2147483647,0,0,1,1,2,2,3,3,4,4,5,5,6,6,7,7,8,8,9,9,10,10,11,11,12,12,13,13,14,14,15,15,16,16,17,17,18,18,19,19,20,20,21,21,22,22,39,39,40,40,41,41,42,42,43,43,45,45,46,46],"right_children":[2,4,6,8,10,12,14,16,18,20,22,24,26,28,30,32,34,36,38,40,42,44,46,-1,-1,-1,-1,-1,-1,-1,-1,-1,-1,-1,-1,-1,-1,-1,-1,48,50,52,54,56,-1,58,60,-1,-1,-1,-1,-1,-1,-1,-1,-1,-1,-1,-1,-1,-1],"split_conditions":[-2.945432E-1,8.149115E-1,3.0899632E-1,3.0899632E-1,2.076737E0,-5.9934425E-1,1.2173369E0,-5.9934425E-1,1.2173369E0,3.0899632E-1,2.7076497E0,9.118013E-1,9.118013E-1,9.118013E-1,9.118013E-1,1.839987E-1,1.839987E-1,1.839987E-1,1.839987E-1,-5.9934425E-1,1.2173369E0,1.2173369E0,3.0899632E-1,-6.365685E-3,-7.2004925E-3,-7.450258E-3,-7.7986587E-3,-9.706107E-3,-1.0035574E-2,-6.5177693E-3,-7.4042724E-3,3.5275926E-3,5.228413E-3,8.809801E-3,3.2444356E-3,-5.9079262E-3,-2.792824E-3,1.2516897E-3,6.1022593E-3,1.4458241E0,1.4458241E0,1.4458241E0,1.4458241E0,3.0899632E-1,3.45076E-3,-5.9934425E-1,1.2173369E0,-2.2998909E-4,-2.9403993E-4,-1.3469226E-3,7.8369216E-5,-6.7195278E-3,-6.342753E-3,-1.704712E-3,1.0081305E-3,1.0526417E-3,-6.0612187E-3,4.4447957E-3,5.8000106E-3,-4.2736656E-3,3.5994698E-3],"split_indices":[1,2,0,0,2,0,0,0,0,0,2,1,1,1,1,2,2,2,2,0,0,0,0,0,0,0,0,0,0,0,0,0,0,0,0,0,0,0,0,2,2,2,2,0,0,0,0,0,0,0,0,0,0,0,0,0,0,0,0,0,0],"split_type":[0,0,0,0,0,0,0,0,0,0,0,0,0,0,0,0,0,0,0,0,0,0,0,0,0,0,0,0,0,0,0,0,0,0,0,0,0,0,0,0,0,0,0,0,0,0,0,0,0,0,0,0,0,0,0,0,0,0,0,0,0],"sum_hessian":[1.14076E5,5.752E4,5.6556E4,3.5367E4,2.2153E4,2.8256E4,2.83E4,2.7948E4,7.419E3,1.5371E4,6.782E3,1.0112E4,1.8144E4,1.5614E4,1.2686E4,1.9783E4,8.165E3,3.522E3,3.897E3,1.1929E4,3.442E3,4.455E3,2.327E3,5.012E3,5.1E3,9.268E3,8.876E3,7.642E3,7.972E3,6.299E3,6.387E3,1.2369E4,7.414E3,5.231E3,2.934E3,1.801E3,1.721E3,1.817E3,2.08E3,8.063E3,3.866E3,1.6E3,1.842E3,3.81E3,6.45E2,1.683E3,6.44E2,4.534E3,3.529E3,2.917E3,9.49E2,9.49E2,6.51E2,9.92E2,8.5E2,3.379E3,4.31E2,1.424E3,2.59E2,3.03E2,3.41E2],"tree_param":{"num_deleted":"0","num_feature":"3","num_nodes":"61","size_leaf_vector":"0"}},{"base_weights":[-6.5108114E-3,5.3219576E-3,-1.8545153E-2,9.074439E-3,-6.689734E-4,-1.708802E-2,-1.9999363E-2,1.152343E-2,-1.514254E-4,-2.6255965E-3,3.76533E-3,-1.5838588E-2,-1.7783443E-2,-2.3042822E-2,-1.6251935E-2,9.719336E-3,1.5892847E-2,-1.0238749E-2,8.965504E-3,-1.1613158E-3,-7.6985685E-3,1.6589097E-3,7.7955895E-3,-1.4854533E-2,-1.680256E-2,-1.738474E-2,-1.8197747E-2,-2.2648849E-2,-2.34176E-2,-1.5209163E-2,-1.7277798E-2,8.231346E-3,1.2200352E-2,2.0557882E-2,7.571429E-3,-1.3788442E-2,-6.5181996E-3,2.92129E-3,1.4241533E-2,-6.022055E-4,-2.3269493E-3,-1.5338827E-2,-1.0573578E-3,5.7391776E-4,8.057122E-3,1.0871666E-2,-2.4767822E-4,-5.3669926E-4,-6.8619096E-4,-3.1432842E-3,1.8293808E-4,-1.5685968E-2,-1.4809498E-2,-3.9793653E-3,2.353466E-3,2.456499E-3,-1.4156866E-2,1.0374323E-2,1.3555666E-2,-9.985956E-3,8.409293E-3],"categories":[],"categories_nodes":[],"categories_segments":[],"categories_sizes":[],"default_left":[true,true,true,true,true,true,true,true,true,true,true,true,true,true,true,true,true,true,true,true,true,true,true,false,false,false,false,false,false,false,false,false,false,false,false,false,false,false,false,true,true,true,true,true,false,true,true,false,false,false,false,false,false,false,false,false,false,false,false,false,false],"id":8,"left_children":[1,3,5,7,9,11,13,15,17,19,21,23,25,27,29,31,33,35,37,39,41,43,45,-1,-1,-1,-1,-1,-1,-1,-1,-1,-1,-1,-1,-1,-1,-1,-1,47,49,51,53,55,-1,57,59,-1,-1,-1,-1,-1,-1,-1,-1,-1,-1,-1,-1,-1,-1],"loss_changes":[1.6244614E1,1.2931275E0,1.1950302E-1,7.9910827E-1,1.9222377E-1,2.4271011E-2,3.22402E-1,2.2016287E-1,6.824752E-1,1.141782E-1,5.7570793E-2,9.343624E-3,2.6807785E-3,1.7757416E-3,1.3309002E-2,7.293677E-2,3.1684613E-1,4.643771E-2,1.24263465E-1,7.773591E-3,1.7468353E-1,3.0928966E-2,5.7601377E-2,0E0,0E0,0E0,0E0,0E0,0E0,0E0,0E0,0E0,0E0,0E0,0E0,0E0,0E0,0E0,0E0,4.3996377E-5,7.923707E-3,6.189942E-5,1.8377539E-2,1.0572104E-1,0E0,2.1072775E-3,5.4460052E-2,0E0,0E0,0E0,0E0,0E0,0E0,0E0,0E0,0E0,0E0,0E0,0E0,0E0,0E0],"parents":[2147483647,0,0,1,1,2,2,3,3,4,4,5,5,6,6,7,7,8,8,9,9,10,10,11,11,12,12,13,13,14,14,15,15,16,16,17,17,18,18,19,19,20,20,21,21,22,22,39,39,40,40,41,41,42,42,43,43,45,45,46,46],"right_children":[2,4,6,8,10,12,14,16,18,20,22,24,26,28,30,32,34,36,38,40,42,44,46,-1,-1,-1,-1,-1,-1,-1,-1,-1,-1,-1,-1,-1,-1,-1,-1,48,50,52,54,56,-1,58,60,-1,-1,-1,-1,-1,-1,-1,-1,-1,-1,-1,-1,-1,-1],"split_conditions":[-2.945432E-1,8.149115E-1,3.0899632E-1,3.0899632E-1,2.076737E0,-5.9934425E-1,1.2173369E0,-5.9934425E-1,1.2173369E0,3.0899632E-1,2.7076497E0,9.118013E-1,9.118013E-1,9.118013E-1,9.118013E-1,1.839987E-1,1.839987E-1,1.839987E-1,1.839987E-1,-5.9934425E-1,1.2173369E0,1.2173369E0,3.0899632E-1,-4.45636E-3,-5.0407685E-3,-5.2154223E-3,-5.4593245E-3,-6.7946548E-3,-7.02528E-3,-4.562749E-3,-5.1833396E-3,2.4694037E-3,3.6601056E-3,6.167365E-3,2.2714287E-3,-4.136533E-3,-1.95546E-3,8.7638706E-4,4.27246E-3,1.4458241E0,1.4458241E0,1.4458241E0,1.4458241E0,3.0899632E-1,2.4171367E-3,-5.9934425E-1,1.2173369E0,-1.6100978E-4,-2.058573E-4,-9.429853E-4,5.4881424E-5,-4.7057904E-3,-4.4428497E-3,-1.1938097E-3,7.0603983E-4,7.3694973E-4,-4.24706E-3,3.1122973E-3,4.0667E-3,-2.995787E-3,2.522788E-3],"split_indices":[1,2,0,0,2,0,0,0,0,0,2,1,1,1,1,2,2,2,2,0,0,0,0,0,0,0,0,0,0,0,0,0,0,0,0,0,0,0,0,2,2,2,2,0,0,0,0,0,0,0,0,0,0,0,0,0,0,0,0,0,0],"split_type":[0,0,0,0,0,0,0,0,0,0,0,0,0,0,0,0,0,0,0,0,0,0,0,0,0,0,0,0,0,0,0,0,0,0,0,0,0,0,0,0,0,0,0,0,0,0,0,0,0,0,0,0,0,0,0,0,0,0,0,0,0],"sum_hessian":[1.14076E5,5.752E4,5.6556E4,3.5367E4,2.2153E4,2.8256E4,2.83E4,2.7948E4,7.419E3,1.5371E4,6.782E3,1.0112E4,1.8144E4,1.5614E4,1.2686E4,1.9783E4,8.165E3,3.522E3,3.897E3,1.1929E4,3.442E3,4.455E3,2.327E3,5.012E3,5.1E3,9.268E3,8.876E3,7.642E3,7.972E3,6.299E3,6.387E3,1.2369E4,7.414E3,5.231E3,2.934E3,1.801E3,1.721E3,1.817E3,2.08E3,8.063E3,3.866E3,1.6E3,1.842E3,3.81E3,6.45E2,1.683E3,6.44E2,4.534E3,3.529E3,2.917E3,9.49E2,9.49E2,6.51E2,9.92E2,8.5E2,3.379E3,4.31E2,1.424E3,2.59E2,3.03E2,3.41E2],"tree_param":{"num_deleted":"0","num_feature":"3","num_nodes":"61","size_leaf_vector":"0"}},{"base_weights":[-4.5578782E-3,3.7255152E-3,-1.298238E-2,6.352493E-3,-4.6852144E-4,-1.1962328E-2,-1.4000386E-2,8.066922E-3,-1.0612184E-4,-1.8386267E-3,2.636554E-3,-1.1087946E-2,-1.2449E-2,-1.613086E-2,-1.137712E-2,6.803841E-3,1.1126037E-2,-7.168857E-3,6.277183E-3,-8.1302854E-4,-5.391792E-3,1.1609892E-3,5.4597845E-3,-1.0399049E-2,-1.1762784E-2,-1.2169883E-2,-1.2739041E-2,-1.5855085E-2,-1.6393201E-2,-1.0647134E-2,-1.209527E-2,5.7621235E-3,8.540758E-3,1.4391704E-2,5.300789E-3,-9.654204E-3,-4.563883E-3,2.0454058E-3,9.971125E-3,-4.2158566E-4,-1.6291088E-3,-1.0742899E-2,-7.404006E-4,4.0082057E-4,5.643716E-3,7.6144114E-3,-1.740942E-4,-3.7571002E-4,-4.8040278E-4,-2.2006354E-3,1.2809502E-4,-1.0985135E-2,-1.0373471E-2,-2.786751E-3,1.6482788E-3,1.7197652E-3,-9.9196285E-3,7.2641913E-3,9.504602E-3,-7.00002E-3,5.8939043E-3],"categories":[],"categories_nodes":[],"categories_segments":[],"categories_sizes":[],"default_left":[true,true,true,true,true,true,true,true,true,true,true,true,true,true,true,true,true,true,true,true,true,true,true,false,false,false,false,false,false,false,false,false,false,false,false,false,false,false,false,true,true,true,true,true,false,true,true,false,false,false,false,false,false,false,false,false,false,false,false,false,false],"id":9,"left_children":[1,3,5,7,9,11,13,15,17,19,21,23,25,27,29,31,33,35,37,39,41,43,45,-1,-1,-1,-1,-1,-1,-1,-1,-1,-1,-1,-1,-1,-1,-1,-1,47,49,51,53,55,-1,57,59,-1,-1,-1,-1,-1,-1,-1,-1,-1,-1,-1,-1,-1,-1],"loss_changes":[7.9607363E0,6.3374877E-1,5.856228E-2,3.9162493E-1,9.425417E-2,1.1886597E-2,1.5798521E-1,1.0791671E-1,3.3456525E-1,5.6013018E-2,2.8250694E-2,4.579067E-3,1.3141632E-3,8.69751E-4,6.522298E-3,3.574747E-2,1.5526819E-1,2.2764787E-2,6.0912907E-2,3.8103368E-3,8.568863E-2,1.5182128E-2,2.82607E-2,0E0,0E0,0E0,0E0,0E0,0E0,0E0,0E0,0E0,0E0,0E0,0E0,0E0,0E0,0E0,0E0,2.1578395E-5,3.8838666E-3,2.9325485E-5,9.013315E-3,5.189278E-2,0E0,1.0457411E-3,2.675697E-2,0E0,0E0,0E0,0E0,0E0,0E0,0E0,0E0,0E0,0E0,0E0,0E0,0E0,0E0],"parents":[2147483647,0,0,1,1,2,2,3,3,4,4,5,5,6,6,7,7,8,8,9,9,10,10,11,11,12,12,13,13,14,14,15,15,16,16,17,17,18,18,19,19,20,20,21,21,22,22,39,39,40,40,41,41,42,42,43,43,45,45,46,46],"right_children":[2,4,6,8,10,12,14,16,18,20,22,24,26,28,30,32,34,36,38,40,42,44,46,-1,-1,-1,-1,-1,-1,-1,-1,-1,-1,-1,-1,-1,-1,-1,-1,48,50,52,54,56,-1,58,60,-1,-1,-1,-1,-1,-1,-1,-1,-1,-1,-1,-1,-1,-1],"split_conditions":[-2.945432E-1,8.149115E-1,3.0899632E-1,3.0899632E-1,2.076737E0,-5.9934425E-1,1.2173369E0,-5.9934425E-1,1.2173369E0,3.0899632E-1,2.7076497E0,9.118013E-1,9.118013E-1,9.118013E-1,9.118013E-1,1.839987E-1,1.839987E-1,1.839987E-1,1.839987E-1,-5.9934425E-1,1.2173369E0,1.2173369E0,3.0899632E-1,-3.1197148E-3,-3.5288353E-3,-3.650965E-3,-3.8217125E-3,-4.7565256E-3,-4.9179606E-3,-3.1941403E-3,-3.628581E-3,1.7286371E-3,2.5622274E-3,4.3175113E-3,1.5902368E-3,-2.8962614E-3,-1.3691649E-3,6.136218E-4,2.9913376E-3,1.4458241E0,1.4458241E0,1.4458241E0,1.4458241E0,3.0899632E-1,1.6931149E-3,-5.9934425E-1,1.2173369E0,-1.1271301E-4,-1.4412084E-4,-6.6019065E-4,3.842851E-5,-3.2955406E-3,-3.1120416E-3,-8.360253E-4,4.944837E-4,5.159296E-4,-2.9758888E-3,2.1792576E-3,2.8513807E-3,-2.100006E-3,1.7681713E-3],"split_indices":[1,2,0,0,2,0,0,0,0,0,2,1,1,1,1,2,2,2,2,0,0,0,0,0,0,0,0,0,0,0,0,0,0,0,0,0,0,0,0,2,2,2,2,0,0,0,0,0,0,0,0,0,0,0,0,0,0,0,0,0,0],"split_type":[0,0,0,0,0,0,0,0,0,0,0,0,0,0,0,0,0,0,0,0,0,0,0,0,0,0,0,0,0,0,0,0,0,0,0,0,0,0,0,0,0,0,0,0,0,0,0,0,0,0,0,0,0,0,0,0,0,0,0,0,0],"sum_hessian":[1.14076E5,5.752E4,5.6556E4,3.5367E4,2.2153E4,2.8256E4,2.83E4,2.7948E4,7.419E3,1.5371E4,6.782E3,1.0112E4,1.8144E4,1.5614E4,1.2686E4,1.9783E4,8.165E3,3.522E3,3.897E3,1.1929E4,3.442E3,4.455E3,2.327E3,5.012E3,5.1E3,9.268E3,8.876E3,7.642E3,7.972E3,6.299E3,6.387E3,1.2369E4,7.414E3,5.231E3,2.934E3,1.801E3,1.721E3,1.817E3,2.08E3,8.063E3,3.866E3,1.6E3,1.842E3,3.81E3,6.45E2,1.683E3,6.44E2,4.534E3,3.529E3,2.917E3,9.49E2,9.49E2,6.51E2,9.92E2,8.5E2,3.379E3,4.31E2,1.424E3,2.59E2,3.03E2,3.41E2],"tree_param":{"num_deleted":"0","num_feature":"3","num_nodes":"61","size_leaf_vector":"0"}},{"base_weights":[-3.1907344E-3,2.6079572E-3,-9.088207E-3,4.447008E-3,-3.2813405E-4,-8.374127E-3,-9.800855E-3,5.647201E-3,-7.437255E-5,-1.2875353E-3,1.8461612E-3,-7.7622156E-3,-8.71471E-3,-1.1292224E-2,-7.964524E-3,4.7628977E-3,7.7889366E-3,-5.019412E-3,4.3949573E-3,-5.69194E-4,-3.7762152E-3,8.125115E-4,3.823866E-3,-7.279948E-3,-8.2346415E-3,-8.519313E-3,-8.9177545E-3,-1.109918E-2,-1.1475861E-2,-7.453503E-3,-8.46726E-3,4.033611E-3,5.978881E-3,1.0075008E-2,3.7110792E-3,-6.7595625E-3,-3.195503E-3,1.4321128E-3,6.981241E-3,-2.9514084E-4,-1.14054E-3,-7.5240284E-3,-5.184697E-4,2.7992076E-4,3.953209E-3,5.333071E-3,-1.2237464E-4,-2.6302267E-4,-3.3631953E-4,-1.5406804E-3,8.972315E-5,-7.6930625E-3,-7.266196E-3,-1.951578E-3,1.1543797E-3,1.2039801E-3,-6.9506355E-3,5.0864555E-3,6.664202E-3,-4.906908E-3,4.130902E-3],"categories":[],"categories_nodes":[],"categories_segments":[],"categories_sizes":[],"default_left":[true,true,true,true,true,true,true,true,true,true,true,true,true,true,true,true,true,true,true,true,true,true,true,false,false,false,false,false,false,false,false,false,false,false,false,false,false,false,false,true,true,true,true,true,false,true,true,false,false,false,false,false,false,false,false,false,false,false,false,false,false],"id":10,"left_children":[1,3,5,7,9,11,13,15,17,19,21,23,25,27,29,31,33,35,37,39,41,43,45,-1,-1,-1,-1,-1,-1,-1,-1,-1,-1,-1,-1,-1,-1,-1,-1,47,49,51,53,55,-1,57,59,-1,-1,-1,-1,-1,-1,-1,-1,-1,-1,-1,-1,-1,-1],"loss_changes":[3.901186E0,3.1059313E-1,2.8698921E-2,1.9192594E-1,4.62161E-2,5.8213472E-3,7.741666E-2,5.2896738E-2,1.6401158E-1,2.7478712E-2,1.3863068E-2,2.2441745E-3,6.438494E-4,4.261732E-4,3.1962395E-3,1.7520338E-2,7.608825E-2,1.1159971E-2,2.9859424E-2,1.8676531E-3,4.2033132E-2,7.452474E-3,1.38654895E-2,0E0,0E0,0E0,0E0,0E0,0E0,0E0,0E0,0E0,0E0,0E0,0E0,0E0,0E0,0E0,0E0,1.0576856E-5,1.9037765E-3,1.3880432E-5,4.4206134E-3,2.5471425E-2,0E0,5.189255E-4,1.3145982E-2,0E0,0E0,0E0,0E0,0E0,0E0,0E0,0E0,0E0,0E0,0E0,0E0,0E0,0E0],"parents":[2147483647,0,0,1,1,2,2,3,3,4,4,5,5,6,6,7,7,8,8,9,9,10,10,11,11,12,12,13,13,14,14,15,15,16,16,17,17,18,18,19,19,20,20,21,21,22,22,39,39,40,40,41,41,42,42,43,43,45,45,46,46],"right_children":[2,4,6,8,10,12,14,16,18,20,22,24,26,28,30,32,34,36,38,40,42,44,46,-1,-1,-1,-1,-1,-1,-1,-1,-1,-1,-1,-1,-1,-1,-1,-1,48,50,52,54,56,-1,58,60,-1,-1,-1,-1,-1,-1,-1,-1,-1,-1,-1,-1,-1,-1],"split_conditions":[-2.945432E-1,8.149115E-1,3.0899632E-1,3.0899632E-1,2.076737E0,-5.9934425E-1,1.2173369E0,-5.9934425E-1,1.2173369E0,3.0899632E-1,2.7076497E0,9.118013E-1,9.118013E-1,9.118013E-1,9.118013E-1,1.839987E-1,1.839987E-1,1.839987E-1,1.839987E-1,-5.9934425E-1,1.2173369E0,1.2173369E0,3.0899632E-1,-2.1839845E-3,-2.4703925E-3,-2.555794E-3,-2.6753265E-3,-3.329754E-3,-3.4427585E-3,-2.236051E-3,-2.5401781E-3,1.2100834E-3,1.7936643E-3,3.0225024E-3,1.1133238E-3,-2.0278688E-3,-9.5865095E-4,4.2963386E-4,2.0943724E-3,1.4458241E0,1.4458241E0,1.4458241E0,1.4458241E0,3.0899632E-1,1.1859628E-3,-5.9934425E-1,1.2173369E0,-7.89068E-5,-1.00895864E-4,-4.6220413E-4,2.6916947E-5,-2.3079189E-3,-2.179859E-3,-5.8547343E-4,3.4631393E-4,3.6119402E-4,-2.0851907E-3,1.5259368E-3,1.9992606E-3,-1.4720726E-3,1.2392706E-3],"split_indices":[1,2,0,0,2,0,0,0,0,0,2,1,1,1,1,2,2,2,2,0,0,0,0,0,0,0,0,0,0,0,0,0,0,0,0,0,0,0,0,2,2,2,2,0,0,0,0,0,0,0,0,0,0,0,0,0,0,0,0,0,0],"split_type":[0,0,0,0,0,0,0,0,0,0,0,0,0,0,0,0,0,0,0,0,0,0,0,0,0,0,0,0,0,0,0,0,0,0,0,0,0,0,0,0,0,0,0,0,0,0,0,0,0,0,0,0,0,0,0,0,0,0,0,0,0],"sum_hessian":[1.14076E5,5.752E4,5.6556E4,3.5367E4,2.2153E4,2.8256E4,2.83E4,2.7948E4,7.419E3,1.5371E4,6.782E3,1.0112E4,1.8144E4,1.5614E4,1.2686E4,1.9783E4,8.165E3,3.522E3,3.897E3,1.1929E4,3.442E3,4.455E3,2.327E3,5.012E3,5.1E3,9.268E3,8.876E3,7.642E3,7.972E3,6.299E3,6.387E3,1.2369E4,7.414E3,5.231E3,2.934E3,1.801E3,1.721E3,1.817E3,2.08E3,8.063E3,3.866E3,1.6E3,1.842E3,3.81E3,6.45E2,1.683E3,6.44E2,4.534E3,3.529E3,2.917E3,9.49E2,9.49E2,6.51E2,9.92E2,8.5E2,3.379E3,4.31E2,1.424E3,2.59E2,3.03E2,3.41E2],"tree_param":{"num_deleted":"0","num_feature":"3","num_nodes":"61","size_leaf_vector":"0"}},{"base_weights":[-2.2336682E-3,1.8256394E-3,-6.362126E-3,3.11309E-3,-2.2980802E-4,-5.862242E-3,-6.8610087E-3,3.9532916E-3,-5.2125208E-5,-9.016156E-4,1.2927124E-3,-5.4340134E-3,-6.1005894E-3,-7.9049915E-3,-5.575547E-3,3.3341653E-3,5.4527815E-3,-3.514435E-3,3.0771126E-3,-3.9847958E-4,-2.6447207E-3,5.6862965E-4,2.678116E-3,-5.096398E-3,-5.764739E-3,-5.963801E-3,-6.242731E-3,-7.7698617E-3,-8.033537E-3,-5.2178074E-3,-5.927486E-3,2.8236138E-3,4.185438E-3,7.0530977E-3,2.5981627E-3,-4.732819E-3,-2.2374066E-3,1.0027188E-3,4.8878626E-3,-2.0660897E-4,-7.9849147E-4,-5.26962E-3,-3.6305585E-4,1.9548187E-4,2.7690902E-3,3.7352403E-3,-8.6031956E-5,-1.8412352E-4,-2.3543753E-4,-1.0786367E-3,6.28371E-5,-5.38757E-3,-5.0896783E-3,-1.3666984E-3,8.084837E-4,8.428828E-4,-4.8702834E-3,3.5615864E-3,4.672632E-3,-3.4396637E-3,2.8952255E-3],"categories":[],"categories_nodes":[],"categories_segments":[],"categories_sizes":[],"default_left":[true,true,true,true,true,true,true,true,true,true,true,true,true,true,true,true,true,true,true,true,true,true,true,false,false,false,false,false,false,false,false,false,false,false,false,false,false,false,false,true,true,true,true,true,false,true,true,false,false,false,false,false,false,false,false,false,false,false,false,false,false],"id":11,"left_children":[1,3,5,7,9,11,13,15,17,19,21,23,25,27,29,31,33,35,37,39,41,43,45,-1,-1,-1,-1,-1,-1,-1,-1,-1,-1,-1,-1,-1,-1,-1,-1,47,49,51,53,55,-1,57,59,-1,-1,-1,-1,-1,-1,-1,-1,-1,-1,-1,-1,-1,-1],"loss_changes":[1.9117918E0,1.522178E-1,1.4064074E-2,9.4058484E-2,2.266118E-2,2.8510094E-3,3.7935853E-2,2.5928915E-2,8.040199E-2,1.3480484E-2,6.8028215E-3,1.0998249E-3,3.15547E-4,2.0885468E-4,1.5663803E-3,8.586675E-3,3.728634E-2,5.470883E-3,1.46368E-2,9.154689E-4,2.06187E-2,3.6582667E-3,6.8028495E-3,0E0,0E0,0E0,0E0,0E0,0E0,0E0,0E0,0E0,0E0,0E0,0E0,0E0,0E0,0E0,0E0,5.183916E-6,9.3316357E-4,6.556511E-6,2.168117E-3,1.2502589E-2,0E0,2.5748275E-4,6.4586946E-3,0E0,0E0,0E0,0E0,0E0,0E0,0E0,0E0,0E0,0E0,0E0,0E0,0E0,0E0],"parents":[2147483647,0,0,1,1,2,2,3,3,4,4,5,5,6,6,7,7,8,8,9,9,10,10,11,11,12,12,13,13,14,14,15,15,16,16,17,17,18,18,19,19,20,20,21,21,22,22,39,39,40,40,41,41,42,42,43,43,45,45,46,46],"right_children":[2,4,6,8,10,12,14,16,18,20,22,24,26,28,30,32,34,36,38,40,42,44,46,-1,-1,-1,-1,-1,-1,-1,-1,-1,-1,-1,-1,-1,-1,-1,-1,48,50,52,54,56,-1,58,60,-1,-1,-1,-1,-1,-1,-1,-1,-1,-1,-1,-1,-1,-1],"split_conditions":[-2.945432E-1,8.149115E-1,3.0899632E-1,3.0899632E-1,2.076737E0,-5.9934425E-1,1.2173369E0,-5.9934425E-1,1.2173369E0,3.0899632E-1,2.7076497E0,9.118013E-1,9.118013E-1,9.118013E-1,9.118013E-1,1.839987E-1,1.839987E-1,1.839987E-1,1.839987E-1,-5.9934425E-1,1.2173369E0,1.2173369E0,3.0899632E-1,-1.5289194E-3,-1.7294218E-3,-1.7891404E-3,-1.8728194E-3,-2.3309586E-3,-2.4100612E-3,-1.5653423E-3,-1.7782458E-3,8.4708416E-4,1.2556314E-3,2.1159295E-3,7.7944883E-4,-1.4198457E-3,-6.71222E-4,3.0081565E-4,1.4663589E-3,1.4458241E0,1.4458241E0,1.4458241E0,1.4458241E0,3.0899632E-1,8.307271E-4,-5.9934425E-1,1.2173369E0,-5.523706E-5,-7.0631264E-5,-3.2359103E-4,1.885113E-5,-1.616271E-3,-1.5269036E-3,-4.1000955E-4,2.4254511E-4,2.5286485E-4,-1.461085E-3,1.068476E-3,1.4017897E-3,-1.0318991E-3,8.685677E-4],"split_indices":[1,2,0,0,2,0,0,0,0,0,2,1,1,1,1,2,2,2,2,0,0,0,0,0,0,0,0,0,0,0,0,0,0,0,0,0,0,0,0,2,2,2,2,0,0,0,0,0,0,0,0,0,0,0,0,0,0,0,0,0,0],"split_type":[0,0,0,0,0,0,0,0,0,0,0,0,0,0,0,0,0,0,0,0,0,0,0,0,0,0,0,0,0,0,0,0,0,0,0,0,0,0,0,0,0,0,0,0,0,0,0,0,0,0,0,0,0,0,0,0,0,0,0,0,0],"sum_hessian":[1.14076E5,5.752E4,5.6556E4,3.5367E4,2.2153E4,2.8256E4,2.83E4,2.7948E4,7.419E3,1.5371E4,6.782E3,1.0112E4,1.8144E4,1.5614E4,1.2686E4,1.9783E4,8.165E3,3.522E3,3.897E3,1.1929E4,3.442E3,4.455E3,2.327E3,5.012E3,5.1E3,9.268E3,8.876E3,7.642E3,7.972E3,6.299E3,6.387E3,1.2369E4,7.414E3,5.231E3,2.934E3,1.801E3,1.721E3,1.817E3,2.08E3,8.063E3,3.866E3,1.6E3,1.842E3,3.81E3,6.45E2,1.683E3,6.44E2,4.534E3,3.529E3,2.917E3,9.49E2,9.49E2,6.51E2,9.92E2,8.5E2,3.379E3,4.31E2,1.424E3,2.59E2,3.03E2,3.41E2],"tree_param":{"num_deleted":"0","num_feature":"3","num_nodes":"61","size_leaf_vector":"0"}},{"base_weights":[-1.563674E-3,1.2779976E-3,-4.4537536E-3,2.1792932E-3,-1.6094337E-4,-4.103813E-3,-4.8029926E-3,2.7674802E-3,-3.6531383E-5,-6.3137506E-4,9.051979E-4,-3.804128E-3,-4.270614E-3,-5.533797E-3,-3.9031494E-3,2.3340129E-3,3.8173147E-3,-2.4607067E-3,2.15444E-3,-2.789746E-4,-1.8522597E-3,3.9797512E-4,1.8756789E-3,-3.5677836E-3,-4.035649E-3,-4.174855E-3,-4.3701204E-3,-5.439208E-3,-5.623777E-3,-3.6527188E-3,-4.149519E-3,1.976581E-3,2.92998E-3,4.9375924E-3,1.8189803E-3,-3.3137647E-3,-1.566589E-3,7.0205884E-4,3.4222316E-3,-1.4464755E-4,-5.590197E-4,-3.6906975E-3,-2.542178E-4,1.3653982E-4,1.9396655E-3,2.616142E-3,-6.046882E-5,-1.2890896E-4,-1.64826E-4,-7.551489E-4,4.3994973E-5,-3.7730027E-3,-3.5651138E-3,-9.57091E-4,5.662373E-4,5.9011433E-4,-3.4125769E-3,2.4938667E-3,3.276242E-3,-2.4111539E-3,2.0292057E-3],"categories":[],"categories_nodes":[],"categories_segments":[],"categories_sizes":[],"default_left":[true,true,true,true,true,true,true,true,true,true,true,true,true,true,true,true,true,true,true,true,true,true,true,false,false,false,false,false,false,false,false,false,false,false,false,false,false,false,false,true,true,true,true,true,false,true,true,false,false,false,false,false,false,false,false,false,false,false,false,false,false],"id":12,"left_children":[1,3,5,7,9,11,13,15,17,19,21,23,25,27,29,31,33,35,37,39,41,43,45,-1,-1,-1,-1,-1,-1,-1,-1,-1,-1,-1,-1,-1,-1,-1,-1,47,49,51,53,55,-1,57,59,-1,-1,-1,-1,-1,-1,-1,-1,-1,-1,-1,-1,-1,-1],"loss_changes":[9.3688095E-1,7.459996E-2,6.8923235E-3,4.6095908E-2,1.1111836E-2,1.3962388E-3,1.8589377E-2,1.2709811E-2,3.9415143E-2,6.6131367E-3,3.338186E-3,5.389899E-4,1.5461445E-4,1.02341175E-4,7.676184E-4,4.2085424E-3,1.8272154E-2,2.6819184E-3,7.1750507E-3,4.4869742E-4,1.01142535E-2,1.7957364E-3,3.337685E-3,0E0,0E0,0E0,0E0,0E0,0E0,0E0,0E0,0E0,0E0,0E0,0E0,0E0,0E0,0E0,0E0,2.5397167E-6,4.5737857E-4,3.0957162E-6,1.0633556E-3,6.136919E-3,0E0,1.2775138E-4,3.1732402E-3,0E0,0E0,0E0,0E0,0E0,0E0,0E0,0E0,0E0,0E0,0E0,0E0,0E0,0E0],"parents":[2147483647,0,0,1,1,2,2,3,3,4,4,5,5,6,6,7,7,8,8,9,9,10,10,11,11,12,12,13,13,14,14,15,15,16,16,17,17,18,18,19,19,20,20,21,21,22,22,39,39,40,40,41,41,42,42,43,43,45,45,46,46],"right_children":[2,4,6,8,10,12,14,16,18,20,22,24,26,28,30,32,34,36,38,40,42,44,46,-1,-1,-1,-1,-1,-1,-1,-1,-1,-1,-1,-1,-1,-1,-1,-1,48,50,52,54,56,-1,58,60,-1,-1,-1,-1,-1,-1,-1,-1,-1,-1,-1,-1,-1,-1],"split_conditions":[-2.945432E-1,8.149115E-1,3.0899632E-1,3.0899632E-1,2.076737E0,-5.9934425E-1,1.2173369E0,-5.9934425E-1,1.2173369E0,3.0899632E-1,2.7076497E0,9.118013E-1,9.118013E-1,9.118013E-1,9.118013E-1,1.839987E-1,1.839987E-1,1.839987E-1,1.839987E-1,-5.9934425E-1,1.2173369E0,1.2173369E0,3.0899632E-1,-1.0703352E-3,-1.2106947E-3,-1.2524566E-3,-1.3110362E-3,-1.6317625E-3,-1.6871331E-3,-1.0958157E-3,-1.2448557E-3,5.9297436E-4,8.78994E-4,1.4812778E-3,5.4569414E-4,-9.941295E-4,-4.6997672E-4,2.1061765E-4,1.0266695E-3,1.4458241E0,1.4458241E0,1.4458241E0,1.4458241E0,3.0899632E-1,5.8189966E-4,-5.9934425E-1,1.2173369E0,-3.867269E-5,-4.94478E-5,-2.2654467E-4,1.31984925E-5,-1.1319008E-3,-1.0695342E-3,-2.871273E-4,1.698712E-4,1.7703431E-4,-1.0237731E-3,7.4816006E-4,9.828727E-4,-7.233462E-4,6.0876174E-4],"split_indices":[1,2,0,0,2,0,0,0,0,0,2,1,1,1,1,2,2,2,2,0,0,0,0,0,0,0,0,0,0,0,0,0,0,0,0,0,0,0,0,2,2,2,2,0,0,0,0,0,0,0,0,0,0,0,0,0,0,0,0,0,0],"split_type":[0,0,0,0,0,0,0,0,0,0,0,0,0,0,0,0,0,0,0,0,0,0,0,0,0,0,0,0,0,0,0,0,0,0,0,0,0,0,0,0,0,0,0,0,0,0,0,0,0,0,0,0,0,0,0,0,0,0,0,0,0],"sum_hessian":[1.14076E5,5.752E4,5.6556E4,3.5367E4,2.2153E4,2.8256E4,2.83E4,2.7948E4,7.419E3,1.5371E4,6.782E3,1.0112E4,1.8144E4,1.5614E4,1.2686E4,1.9783E4,8.165E3,3.522E3,3.897E3,1.1929E4,3.442E3,4.455E3,2.327E3,5.012E3,5.1E3,9.268E3,8.876E3,7.642E3,7.972E3,6.299E3,6.387E3,1.2369E4,7.414E3,5.231E3,2.934E3,1.801E3,1.721E3,1.817E3,2.08E3,8.063E3,3.866E3,1.6E3,1.842E3,3.81E3,6.45E2,1.683E3,6.44E2,4.534E3,3.529E3,2.917E3,9.49E2,9.49E2,6.51E2,9.92E2,8.5E2,3.379E3,4.31E2,1.424E3,2.59E2,3.03E2,3.41E2],"tree_param":{"num_deleted":"0","num_feature":"3","num_nodes":"61","size_leaf_vector":"0"}},{"base_weights":[-1.0946445E-3,8.9463725E-4,-3.1178137E-3,1.5256034E-3,-1.1271606E-4,-2.8728412E-3,-3.3622952E-3,1.937372E-3,-2.561618E-5,-4.4213203E-4,6.3384074E-4,-2.6631183E-3,-2.9895706E-3,-3.8738735E-3,-2.732386E-3,1.6339014E-3,2.672362E-3,-1.722914E-3,1.5084029E-3,-1.9530537E-4,-1.2972583E-3,2.7852674E-4,1.3136712E-3,-2.4976635E-3,-2.8251968E-3,-2.9225333E-3,-3.0592317E-3,-3.8076637E-3,-3.936857E-3,-2.5570744E-3,-2.9048552E-3,1.383682E-3,2.051107E-3,3.4565812E-3,1.2734839E-3,-2.3202002E-3,-1.0968789E-3,4.915334E-4,2.3960338E-3,-1.01262835E-4,-3.913653E-4,-2.5848616E-3,-1.7802327E-4,9.536313E-5,1.3586474E-3,1.832328E-3,-4.2501808E-5,-9.023974E-5,-1.1539555E-4,-5.286748E-4,3.080368E-5,-2.6422888E-3,-2.4972227E-3,-6.7026453E-4,3.9656382E-4,4.1314127E-4,-2.3911772E-3,1.7462341E-3,2.2971411E-3,-1.6902E-3,1.4222431E-3],"categories":[],"categories_nodes":[],"categories_segments":[],"categories_sizes":[],"default_left":[true,true,true,true,true,true,true,true,true,true,true,true,true,true,true,true,true,true,true,true,true,true,true,false,false,false,false,false,false,false,false,false,false,false,false,false,false,false,false,true,true,true,true,true,false,true,true,false,false,false,false,false,false,false,false,false,false,false,false,false,false],"id":13,"left_children":[1,3,5,7,9,11,13,15,17,19,21,23,25,27,29,31,33,35,37,39,41,43,45,-1,-1,-1,-1,-1,-1,-1,-1,-1,-1,-1,-1,-1,-1,-1,-1,47,49,51,53,55,-1,57,59,-1,-1,-1,-1,-1,-1,-1,-1,-1,-1,-1,-1,-1,-1],"loss_changes":[4.591232E-1,3.656086E-2,3.3776164E-3,2.2591129E-2,5.448563E-3,6.837845E-4,9.109348E-3,6.2295943E-3,1.932196E-2,3.244283E-3,1.63809E-3,2.6414543E-4,7.5787306E-5,5.0127506E-5,3.7617236E-4,2.0624734E-3,8.9539215E-3,1.3147825E-3,3.517176E-3,2.199254E-4,4.961353E-3,8.8144E-4,1.6375659E-3,0E0,0E0,0E0,0E0,0E0,0E0,0E0,0E0,0E0,0E0,0E0,0E0,0E0,0E0,0E0,0E0,1.2458477E-6,2.2417778E-4,1.4593825E-6,5.215316E-4,3.0123186E-3,0E0,6.3378364E-5,1.559084E-3,0E0,0E0,0E0,0E0,0E0,0E0,0E0,0E0,0E0,0E0,0E0,0E0,0E0,0E0],"parents":[2147483647,0,0,1,1,2,2,3,3,4,4,5,5,6,6,7,7,8,8,9,9,10,10,11,11,12,12,13,13,14,14,15,15,16,16,17,17,18,18,19,19,20,20,21,21,22,22,39,39,40,40,41,41,42,42,43,43,45,45,46,46],"right_children":[2,4,6,8,10,12,14,16,18,20,22,24,26,28,30,32,34,36,38,40,42,44,46,-1,-1,-1,-1,-1,-1,-1,-1,-1,-1,-1,-1,-1,-1,-1,-1,48,50,52,54,56,-1,58,60,-1,-1,-1,-1,-1,-1,-1,-1,-1,-1,-1,-1,-1,-1],"split_conditions":[-2.945432E-1,8.149115E-1,3.0899632E-1,3.0899632E-1,2.076737E0,-5.9934425E-1,1.2173369E0,-5.9934425E-1,1.2173369E0,3.0899632E-1,2.7076497E0,9.118013E-1,9.118013E-1,9.118013E-1,9.118013E-1,1.839987E-1,1.839987E-1,1.839987E-1,1.839987E-1,-5.9934425E-1,1.2173369E0,1.2173369E0,3.0899632E-1,-7.4929907E-4,-8.475591E-4,-8.7676005E-4,-9.1776956E-4,-1.1422992E-3,-1.1810572E-3,-7.671224E-4,-8.714566E-4,4.1510462E-4,6.153321E-4,1.0369744E-3,3.8204517E-4,-6.960601E-4,-3.2906368E-4,1.4746003E-4,7.188102E-4,1.4458241E0,1.4458241E0,1.4458241E0,1.4458241E0,3.0899632E-1,4.0759423E-4,-5.9934425E-1,1.2173369E0,-2.7071923E-5,-3.4618668E-5,-1.5860244E-4,9.241105E-6,-7.9268665E-4,-7.491669E-4,-2.0107937E-4,1.1896915E-4,1.2394239E-4,-7.173532E-4,5.238703E-4,6.891424E-4,-5.0706003E-4,4.2667295E-4],"split_indices":[1,2,0,0,2,0,0,0,0,0,2,1,1,1,1,2,2,2,2,0,0,0,0,0,0,0,0,0,0,0,0,0,0,0,0,0,0,0,0,2,2,2,2,0,0,0,0,0,0,0,0,0,0,0,0,0,0,0,0,0,0],"split_type":[0,0,0,0,0,0,0,0,0,0,0,0,0,0,0,0,0,0,0,0,0,0,0,0,0,0,0,0,0,0,0,0,0,0,0,0,0,0,0,0,0,0,0,0,0,0,0,0,0,0,0,0,0,0,0,0,0,0,0,0,0],"sum_hessian":[1.14076E5,5.752E4,5.6556E4,3.5367E4,2.2153E4,2.8256E4,2.83E4,2.7948E4,7.419E3,1.5371E4,6.782E3,1.0112E4,1.8144E4,1.5614E4,1.2686E4,1.9783E4,8.165E3,3.522E3,3.897E3,1.1929E4,3.442E3,4.455E3,2.327E3,5.012E3,5.1E3,9.268E3,8.876E3,7.642E3,7.972E3,6.299E3,6.387E3,1.2369E4,7.414E3,5.231E3,2.934E3,1.801E3,1.721E3,1.817E3,2.08E3,8.063E3,3.866E3,1.6E3,1.842E3,3.81E3,6.45E2,1.683E3,6.44E2,4.534E3,3.529E3,2.917E3,9.49E2,9.49E2,6.51E2,9.92E2,8.5E2,3.379E3,4.31E2,1.424E3,2.59E2,3.03E2,3.41E2],"tree_param":{"num_deleted":"0","num_feature":"3","num_nodes":"61","size_leaf_vector":"0"}},{"base_weights":[-7.663043E-4,6.2626955E-4,-2.1826008E-3,1.0679829E-3,-7.893678E-5,-2.0111117E-3,-2.353746E-3,1.3562434E-3,-1.7955672E-5,-3.0961153E-4,4.4384238E-4,-1.8643347E-3,-2.0928062E-3,-2.711858E-3,-1.9128011E-3,1.1437844E-3,1.8708081E-3,-1.2063223E-3,1.0560909E-3,-1.3673039E-4,-9.0855494E-4,1.9494655E-4,9.200606E-4,-1.7485074E-3,-1.9777983E-3,-2.0458738E-3,-2.141575E-3,-2.665511E-3,-2.7559462E-3,-1.7900706E-3,-2.0335412E-3,9.6862885E-4,1.4358314E-3,2.4197868E-3,8.9154835E-4,-1.6245235E-3,-7.67992E-4,3.4415114E-4,1.6775472E-3,-7.0894785E-5,-2.739845E-4,-1.8103672E-3,-1.2466461E-4,6.661837E-5,9.5170154E-4,1.2833517E-3,-2.9865254E-5,-3.701161E-4,2.1579643E-5,-4.693932E-4,2.7773273E-4,2.8925942E-4,-1.6754959E-3,1.2227347E-3,1.6106432E-3,-1.1848133E-3,9.968426E-4],"categories":[],"categories_nodes":[],"categories_segments":[],"categories_sizes":[],"default_left":[true,true,true,true,true,true,true,true,true,true,true,true,true,true,true,true,true,true,true,true,true,true,true,false,false,false,false,false,false,false,false,false,false,false,false,false,false,false,false,false,true,false,true,true,false,true,true,false,false,false,false,false,false,false,false,false,false],"id":14,"left_children":[1,3,5,7,9,11,13,15,17,19,21,23,25,27,29,31,33,35,37,39,41,43,45,-1,-1,-1,-1,-1,-1,-1,-1,-1,-1,-1,-1,-1,-1,-1,-1,-1,47,-1,49,51,-1,53,55,-1,-1,-1,-1,-1,-1,-1,-1,-1,-1],"loss_changes":[2.2499514E-1,1.7917817E-2,1.6551912E-3,1.1071384E-2,2.6717312E-3,3.3492595E-4,4.463762E-3,3.053356E-3,9.471874E-3,1.5915853E-3,8.038011E-4,1.2945011E-4,3.7148595E-5,2.4557114E-5,1.8436462E-4,1.0106321E-3,4.3878276E-3,6.445544E-4,1.7240518E-3,1.0778254E-4,2.4337058E-3,4.3267204E-4,8.034301E-4,0E0,0E0,0E0,0E0,0E0,0E0,0E0,0E0,0E0,0E0,0E0,0E0,0E0,0E0,0E0,0E0,6.094233E-7,1.0988125E-4,6.877817E-7,2.5578742E-4,1.4786423E-3,0E0,3.144052E-5,7.660184E-4,0E0,0E0,0E0,0E0,0E0,0E0,0E0,0E0,0E0,0E0],"parents":[2147483647,0,0,1,1,2,2,3,3,4,4,5,5,6,6,7,7,8,8,9,9,10,10,11,11,12,12,13,13,14,14,15,15,16,16,17,17,18,18,19,19,20,20,21,21,22,22,40,40,42,42,43,43,45,45,46,46],"right_children":[2,4,6,8,10,12,14,16,18,20,22,24,26,28,30,32,34,36,38,40,42,44,46,-1,-1,-1,-1,-1,-1,-1,-1,-1,-1,-1,-1,-1,-1,-1,-1,-1,48,-1,50,52,-1,54,56,-1,-1,-1,-1,-1,-1,-1,-1,-1,-1],"split_conditions":[-2.945432E-1,8.149115E-1,3.0899632E-1,3.0899632E-1,2.076737E0,-5.9934425E-1,1.2173369E0,-5.9934425E-1,1.2173369E0,3.0899632E-1,2.7076497E0,9.118013E-1,9.118013E-1,9.118013E-1,9.118013E-1,1.839987E-1,1.839987E-1,1.839987E-1,1.839987E-1,-5.9934425E-1,1.2173369E0,1.2173369E0,3.0899632E-1,-5.2455225E-4,-5.933395E-4,-6.137622E-4,-6.424725E-4,-7.9965335E-4,-8.267839E-4,-5.370212E-4,-6.100624E-4,2.9058868E-4,4.3074944E-4,7.25936E-4,2.6746452E-4,-4.873571E-4,-2.303976E-4,1.03245344E-4,5.032642E-4,-2.1268435E-5,1.4458241E0,-5.431102E-4,1.4458241E0,3.0899632E-1,2.8551047E-4,-5.9934425E-1,1.2173369E0,-1.1103483E-4,6.473893E-6,-1.4081797E-4,8.331982E-5,8.677783E-5,-5.0264876E-4,3.6682043E-4,4.83193E-4,-3.55444E-4,2.990528E-4],"split_indices":[1,2,0,0,2,0,0,0,0,0,2,1,1,1,1,2,2,2,2,0,0,0,0,0,0,0,0,0,0,0,0,0,0,0,0,0,0,0,0,0,2,0,2,0,0,0,0,0,0,0,0,0,0,0,0,0,0],"split_type":[0,0,0,0,0,0,0,0,0,0,0,0,0,0,0,0,0,0,0,0,0,0,0,0,0,0,0,0,0,0,0,0,0,0,0,0,0,0,0,0,0,0,0,0,0,0,0,0,0,0,0,0,0,0,0,0,0],"sum_hessian":[1.14076E5,5.752E4,5.6556E4,3.5367E4,2.2153E4,2.8256E4,2.83E4,2.7948E4,7.419E3,1.5371E4,6.782E3,1.0112E4,1.8144E4,1.5614E4,1.2686E4,1.9783E4,8.165E3,3.522E3,3.897E3,1.1929E4,3.442E3,4.455E3,2.327E3,5.012E3,5.1E3,9.268E3,8.876E3,7.642E3,7.972E3,6.299E3,6.387E3,1.2369E4,7.414E3,5.231E3,2.934E3,1.801E3,1.721E3,1.817E3,2.08E3,8.063E3,3.866E3,1.6E3,1.842E3,3.81E3,6.45E2,1.683E3,6.44E2,2.917E3,9.49E2,9.92E2,8.5E2,3.379E3,4.31E2,1.424E3,2.59E2,3.03E2,3.41E2],"tree_param":{"num_deleted":"0","num_feature":"3","num_nodes":"57","size_leaf_vector":"0"}},{"base_weights":[-5.364404E-4,4.3842246E-4,-1.52791E-3,7.4764056E-4,-5.5252036E-5,-1.4078612E-3,-1.6477183E-3,9.4943837E-4,-1.2574429E-5,-2.1676587E-4,3.1078744E-4,-1.3051474E-3,-1.4650306E-3,-1.8984039E-3,-1.3390476E-3,8.006902E-4,1.3096986E-3,-8.446283E-4,7.394365E-4,-9.5710115E-5,-6.3616125E-4,1.3642869E-4,6.443922E-4,-1.2240604E-3,-1.3845796E-3,-1.4321781E-3,-1.4991688E-3,-1.8659598E-3,-1.929267E-3,-1.2531318E-3,-1.4235703E-3,6.780805E-4,1.0051248E-3,1.6939957E-3,6.241952E-4,-1.1374365E-3,-5.3772656E-4,2.4097267E-4,1.1745483E-3,-4.961356E-5,-1.9181223E-4,-1.2675889E-3,-8.7299704E-5,-5.0994477E-5,4.1875165E-4,8.9885836E-4,-2.0980604E-5,-2.5911556E-4,1.511715E-5,-1.307895E-3,-1.2069164E-3,-3.2871662E-4,1.9450323E-4,1.1696107E-3,-7.1055E-5,8.56185E-4,1.1292844E-3,-8.3052914E-4,6.986795E-4],"categories":[],"categories_nodes":[],"categories_segments":[],"categories_sizes":[],"default_left":[true,true,true,true,true,true,true,true,true,true,true,true,true,true,true,true,true,true,true,true,true,true,true,false,false,false,false,false,false,false,false,false,false,false,false,false,false,false,false,false,true,true,true,false,true,true,true,false,false,false,false,false,false,false,false,false,false,false,false],"id":15,"left_children":[1,3,5,7,9,11,13,15,17,19,21,23,25,27,29,31,33,35,37,39,41,43,45,-1,-1,-1,-1,-1,-1,-1,-1,-1,-1,-1,-1,-1,-1,-1,-1,-1,47,49,51,-1,53,55,57,-1,-1,-1,-1,-1,-1,-1,-1,-1,-1,-1,-1],"loss_changes":[1.1026143E-1,8.780799E-3,8.111447E-4,5.425809E-3,1.3098215E-3,1.6401708E-4,2.1873638E-3,1.496682E-3,4.6434193E-3,7.803789E-4,3.9445824E-4,6.3441694E-5,1.8201768E-5,1.2036413E-5,9.03476E-5,4.9521774E-4,2.1501686E-3,3.159768E-4,8.451445E-4,5.2840107E-5,1.1931174E-3,2.3580554E-4,3.941839E-4,0E0,0E0,0E0,0E0,0E0,0E0,0E0,0E0,0E0,0E0,0E0,0E0,0E0,0E0,0E0,0E0,6.1217906E-7,5.3859767E-5,2.3366883E-6,1.254469E-4,0E0,6.5398833E-4,1.559197E-5,3.7635714E-4,0E0,0E0,0E0,0E0,0E0,0E0,0E0,0E0,0E0,0E0,0E0,0E0],"parents":[2147483647,0,0,1,1,2,2,3,3,4,4,5,5,6,6,7,7,8,8,9,9,10,10,11,11,12,12,13,13,14,14,15,15,16,16,17,17,18,18,19,19,20,20,21,21,22,22,40,40,41,41,42,42,44,44,45,45,46,46],"right_children":[2,4,6,8,10,12,14,16,18,20,22,24,26,28,30,32,34,36,38,40,42,44,46,-1,-1,-1,-1,-1,-1,-1,-1,-1,-1,-1,-1,-1,-1,-1,-1,-1,48,50,52,-1,54,56,58,-1,-1,-1,-1,-1,-1,-1,-1,-1,-1,-1,-1],"split_conditions":[-2.945432E-1,8.149115E-1,3.0899632E-1,3.0899632E-1,2.076737E0,-5.9934425E-1,1.2173369E0,-5.9934425E-1,1.2173369E0,3.0899632E-1,2.7076497E0,9.118013E-1,9.118013E-1,9.118013E-1,9.118013E-1,1.839987E-1,1.839987E-1,1.839987E-1,1.839987E-1,-5.9934425E-1,1.2173369E0,-5.9934425E-1,3.0899632E-1,-3.6721813E-4,-4.1537388E-4,-4.2965345E-4,-4.4975066E-4,-5.5978796E-4,-5.7878013E-4,-3.7593956E-4,-4.2707112E-4,2.0342415E-4,3.0153745E-4,5.0819875E-4,1.8725857E-4,-3.4123095E-4,-1.6131798E-4,7.2291805E-5,3.523645E-4,-1.4884069E-5,1.4458241E0,1.4458241E0,1.4458241E0,-1.5298343E-5,3.0899632E-1,-5.9934425E-1,1.2173369E0,-7.773467E-5,4.5351453E-6,-3.9236853E-4,-3.6207493E-4,-9.861499E-5,5.835097E-5,3.508832E-4,-2.13165E-5,2.568555E-4,3.3878532E-4,-2.4915877E-4,2.0960385E-4],"split_indices":[1,2,0,0,2,0,0,0,0,0,2,1,1,1,1,2,2,2,2,0,0,0,0,0,0,0,0,0,0,0,0,0,0,0,0,0,0,0,0,0,2,2,2,0,0,0,0,0,0,0,0,0,0,0,0,0,0,0,0],"split_type":[0,0,0,0,0,0,0,0,0,0,0,0,0,0,0,0,0,0,0,0,0,0,0,0,0,0,0,0,0,0,0,0,0,0,0,0,0,0,0,0,0,0,0,0,0,0,0,0,0,0,0,0,0,0,0,0,0,0,0],"sum_hessian":[1.14076E5,5.752E4,5.6556E4,3.5367E4,2.2153E4,2.8256E4,2.83E4,2.7948E4,7.419E3,1.5371E4,6.782E3,1.0112E4,1.8144E4,1.5614E4,1.2686E4,1.9783E4,8.165E3,3.522E3,3.897E3,1.1929E4,3.442E3,4.455E3,2.327E3,5.012E3,5.1E3,9.268E3,8.876E3,7.642E3,7.972E3,6.299E3,6.387E3,1.2369E4,7.414E3,5.231E3,2.934E3,1.801E3,1.721E3,1.817E3,2.08E3,8.063E3,3.866E3,1.6E3,1.842E3,2.678E3,1.777E3,1.683E3,6.44E2,2.917E3,9.49E2,9.49E2,6.51E2,9.92E2,8.5E2,7.01E2,1.076E3,1.424E3,2.59E2,3.03E2,3.41E2],"tree_param":{"num_deleted":"0","num_feature":"3","num_nodes":"59","size_leaf_vector":"0"}},{"base_weights":[-3.755317E-4,3.0691107E-4,-1.0695999E-3,5.2337605E-4,-3.8680682E-5,-9.855591E-4,-1.1534722E-3,6.6464586E-4,-8.817187E-6,-1.518037E-4,2.176905E-4,-9.136807E-4,-1.0255658E-3,-1.3289558E-3,-9.373984E-4,5.605039E-4,9.1687206E-4,-5.913774E-4,5.1770115E-4,-6.701697E-5,-4.4554574E-4,9.558373E-5,4.5132026E-4,-8.5690926E-4,-9.6929364E-4,-1.0025614E-3,-1.0494704E-3,-1.3062495E-3,-1.3505556E-3,-8.772521E-4,-9.965695E-4,4.746655E-4,7.036274E-4,1.1859038E-3,4.3697748E-4,-7.963892E-4,-3.7649774E-4,1.687128E-4,8.2233496E-4,-3.474676E-5,-1.3429392E-4,-8.8778866E-4,-6.113095E-5,-4.851714E-6,6.8794267E-4,6.2957144E-4,-1.476712E-5,-1.8141774E-4,1.0591965E-5,-9.1594394E-4,-8.4540324E-4,-2.3019803E-4,1.3621892E-4,1.4186384E-4,-1.1527538E-3,5.9953105E-4,7.917946E-4,-5.822013E-4,4.89662E-4],"categories":[],"categories_nodes":[],"categories_segments":[],"categories_sizes":[],"default_left":[true,true,true,true,true,true,true,true,true,true,true,true,true,true,true,true,true,true,true,true,true,true,true,false,false,false,false,false,false,false,false,false,false,false,false,false,false,false,false,false,true,true,true,true,false,true,true,false,false,false,false,false,false,false,false,false,false,false,false],"id":16,"left_children":[1,3,5,7,9,11,13,15,17,19,21,23,25,27,29,31,33,35,37,39,41,43,45,-1,-1,-1,-1,-1,-1,-1,-1,-1,-1,-1,-1,-1,-1,-1,-1,-1,47,49,51,53,-1,55,57,-1,-1,-1,-1,-1,-1,-1,-1,-1,-1,-1,-1],"loss_changes":[5.403425E-2,4.30308E-3,3.9751828E-4,2.6590722E-3,6.425319E-4,8.031726E-5,1.0718517E-3,7.3363166E-4,2.2762322E-3,3.828164E-4,1.9346073E-4,3.1097792E-5,8.925796E-6,5.8934093E-6,4.427787E-5,2.4272222E-4,1.0537687E-3,1.5489839E-4,4.1427196E-4,2.5895857E-5,5.85272E-4,2.6510784E-4,1.93421E-4,0E0,0E0,0E0,0E0,0E0,0E0,0E0,0E0,0E0,0E0,0E0,0E0,0E0,0E0,0E0,0E0,6.1344326E-7,2.640416E-5,1.1362135E-6,6.152373E-5,6.419935E-4,0E0,7.73184E-6,1.8490365E-4,0E0,0E0,0E0,0E0,0E0,0E0,0E0,0E0,0E0,0E0,0E0,0E0],"parents":[2147483647,0,0,1,1,2,2,3,3,4,4,5,5,6,6,7,7,8,8,9,9,10,10,11,11,12,12,13,13,14,14,15,15,16,16,17,17,18,18,19,19,20,20,21,21,22,22,40,40,41,41,42,42,43,43,45,45,46,46],"right_children":[2,4,6,8,10,12,14,16,18,20,22,24,26,28,30,32,34,36,38,40,42,44,46,-1,-1,-1,-1,-1,-1,-1,-1,-1,-1,-1,-1,-1,-1,-1,-1,-1,48,50,52,54,-1,56,58,-1,-1,-1,-1,-1,-1,-1,-1,-1,-1,-1,-1],"split_conditions":[-2.945432E-1,8.149115E-1,3.0899632E-1,3.0899632E-1,2.076737E0,-5.9934425E-1,1.2173369E0,-5.9934425E-1,1.2173369E0,3.0899632E-1,2.7076497E0,9.118013E-1,9.118013E-1,9.118013E-1,9.118013E-1,1.839987E-1,1.839987E-1,1.839987E-1,1.839987E-1,-5.9934425E-1,1.2173369E0,1.2173369E0,3.0899632E-1,-2.570728E-4,-2.907881E-4,-3.0076844E-4,-3.1484113E-4,-3.9187487E-4,-4.0516668E-4,-2.6317564E-4,-2.9897087E-4,1.4239966E-4,2.1108823E-4,3.5577116E-4,1.3109326E-4,-2.3891676E-4,-1.12949325E-4,5.0613842E-5,2.467005E-4,-1.0424029E-5,1.4458241E0,1.4458241E0,1.4458241E0,3.0899632E-1,2.0638281E-4,-5.9934425E-1,1.2173369E0,-5.4425323E-5,3.1775896E-6,-2.747832E-4,-2.53621E-4,-6.905941E-5,4.0865678E-5,4.2559153E-5,-3.4582615E-4,1.7985931E-4,2.3753839E-4,-1.746604E-4,1.468986E-4],"split_indices":[1,2,0,0,2,0,0,0,0,0,2,1,1,1,1,2,2,2,2,0,0,0,0,0,0,0,0,0,0,0,0,0,0,0,0,0,0,0,0,0,2,2,2,0,0,0,0,0,0,0,0,0,0,0,0,0,0,0,0],"split_type":[0,0,0,0,0,0,0,0,0,0,0,0,0,0,0,0,0,0,0,0,0,0,0,0,0,0,0,0,0,0,0,0,0,0,0,0,0,0,0,0,0,0,0,0,0,0,0,0,0,0,0,0,0,0,0,0,0,0,0],"sum_hessian":[1.14076E5,5.752E4,5.6556E4,3.5367E4,2.2153E4,2.8256E4,2.83E4,2.7948E4,7.419E3,1.5371E4,6.782E3,1.0112E4,1.8144E4,1.5614E4,1.2686E4,1.9783E4,8.165E3,3.522E3,3.897E3,1.1929E4,3.442E3,4.455E3,2.327E3,5.012E3,5.1E3,9.268E3,8.876E3,7.642E3,7.972E3,6.299E3,6.387E3,1.2369E4,7.414E3,5.231E3,2.934E3,1.801E3,1.721E3,1.817E3,2.08E3,8.063E3,3.866E3,1.6E3,1.842E3,3.81E3,6.45E2,1.683E3,6.44E2,2.917E3,9.49E2,9.49E2,6.51E2,9.92E2,8.5E2,3.379E3,4.31E2,1.424E3,2.59E2,3.03E2,3.41E2],"tree_param":{"num_deleted":"0","num_feature":"3","num_nodes":"59","size_leaf_vector":"0"}},{"base_weights":[-2.6288762E-4,2.1484986E-4,-7.487634E-4,3.663936E-4,-2.7093534E-5,-6.899325E-4,-8.074764E-4,4.6529135E-4,-6.1751234E-6,-1.063024E-4,1.5241787E-4,-6.3963124E-4,-7.179295E-4,-9.3031744E-4,-6.562216E-4,3.9238355E-4,6.4187025E-4,-4.1405932E-4,3.6247092E-4,-4.691347E-5,-3.1205427E-4,6.6883986E-5,3.1607188E-4,-5.998855E-4,-6.7856594E-4,-7.018288E-4,-7.3466037E-4,-9.1442344E-4,-9.454369E-4,-6.1412103E-4,-6.9763936E-4,3.3228227E-4,4.925939E-4,8.301873E-4,3.0595312E-4,-5.5759674E-4,-2.636131E-4,1.1813701E-4,5.7575136E-4,-2.4317138E-5,-9.402231E-5,-6.2178675E-4,-4.2822703E-5,-7.822346E-5,2.854869E-4,4.4092425E-4,-1.0389321E-5,-1.2701246E-4,7.4085438E-6,-1.612176E-4,9.5378186E-5,7.767223E-4,-3.497067E-5,4.1976702E-4,5.551862E-4,-4.0810564E-4,3.4316667E-4],"categories":[],"categories_nodes":[],"categories_segments":[],"categories_sizes":[],"default_left":[true,true,true,true,true,true,true,true,true,true,true,true,true,true,true,true,true,true,true,true,true,true,true,false,false,false,false,false,false,false,false,false,false,false,false,false,false,false,false,false,true,false,true,false,true,true,true,false,false,false,false,false,false,false,false,false,false],"id":17,"left_children":[1,3,5,7,9,11,13,15,17,19,21,23,25,27,29,31,33,35,37,39,41,43,45,-1,-1,-1,-1,-1,-1,-1,-1,-1,-1,-1,-1,-1,-1,-1,-1,-1,47,-1,49,-1,51,53,55,-1,-1,-1,-1,-1,-1,-1,-1,-1,-1],"loss_changes":[2.6479837E-2,2.1090177E-3,1.9479915E-4,1.3031797E-3,3.150216E-4,3.933441E-5,5.2523054E-4,3.5956362E-4,1.1158576E-3,1.8782174E-4,9.492705E-5,1.5242491E-5,4.371628E-6,2.8880313E-6,2.1694228E-5,1.18990894E-4,5.1631825E-4,7.593096E-5,2.0306319E-4,1.2697043E-5,2.8708432E-4,1.4137069E-4,9.489259E-5,0E0,0E0,0E0,0E0,0E0,0E0,0E0,0E0,0E0,0E0,0E0,0E0,0E0,0E0,0E0,0E0,6.141304E-7,1.29407745E-5,5.5262353E-7,3.0171057E-5,0E0,2.7992015E-4,3.837951E-6,9.083672E-5,0E0,0E0,0E0,0E0,0E0,0E0,0E0,0E0,0E0,0E0],"parents":[2147483647,0,0,1,1,2,2,3,3,4,4,5,5,6,6,7,7,8,8,9,9,10,10,11,11,12,12,13,13,14,14,15,15,16,16,17,17,18,18,19,19,20,20,21,21,22,22,40,40,42,42,44,44,45,45,46,46],"right_children":[2,4,6,8,10,12,14,16,18,20,22,24,26,28,30,32,34,36,38,40,42,44,46,-1,-1,-1,-1,-1,-1,-1,-1,-1,-1,-1,-1,-1,-1,-1,-1,-1,48,-1,50,-1,52,54,56,-1,-1,-1,-1,-1,-1,-1,-1,-1,-1],"split_conditions":[-2.945432E-1,8.149115E-1,3.0899632E-1,3.0899632E-1,2.076737E0,-5.9934425E-1,1.2173369E0,-5.9934425E-1,1.2173369E0,3.0899632E-1,2.7076497E0,9.118013E-1,9.118013E-1,9.118013E-1,9.118013E-1,1.839987E-1,1.839987E-1,1.839987E-1,1.839987E-1,-5.9934425E-1,1.2173369E0,-5.9934425E-1,3.0899632E-1,-1.7996565E-4,-2.0356978E-4,-2.1054865E-4,-2.2039811E-4,-2.7432703E-4,-2.836311E-4,-1.8423631E-4,-2.0929181E-4,9.968469E-5,1.4777818E-4,2.490562E-4,9.1785936E-5,-1.6727902E-4,-7.908393E-5,3.5441106E-5,1.7272541E-4,-7.2951416E-6,1.4458241E0,-1.8653604E-4,1.4458241E0,-2.3467039E-5,3.0899632E-1,-5.9934425E-1,1.2173369E0,-3.810374E-5,2.2225631E-6,-4.836528E-5,2.8613456E-5,2.330167E-4,-1.04912015E-5,1.259301E-4,1.6655587E-4,-1.224317E-4,1.02950005E-4],"split_indices":[1,2,0,0,2,0,0,0,0,0,2,1,1,1,1,2,2,2,2,0,0,0,0,0,0,0,0,0,0,0,0,0,0,0,0,0,0,0,0,0,2,0,2,0,0,0,0,0,0,0,0,0,0,0,0,0,0],"split_type":[0,0,0,0,0,0,0,0,0,0,0,0,0,0,0,0,0,0,0,0,0,0,0,0,0,0,0,0,0,0,0,0,0,0,0,0,0,0,0,0,0,0,0,0,0,0,0,0,0,0,0,0,0,0,0,0,0],"sum_hessian":[1.14076E5,5.752E4,5.6556E4,3.5367E4,2.2153E4,2.8256E4,2.83E4,2.7948E4,7.419E3,1.5371E4,6.782E3,1.0112E4,1.8144E4,1.5614E4,1.2686E4,1.9783E4,8.165E3,3.522E3,3.897E3,1.1929E4,3.442E3,4.455E3,2.327E3,5.012E3,5.1E3,9.268E3,8.876E3,7.642E3,7.972E3,6.299E3,6.387E3,1.2369E4,7.414E3,5.231E3,2.934E3,1.801E3,1.721E3,1.817E3,2.08E3,8.063E3,3.866E3,1.6E3,1.842E3,2.678E3,1.777E3,1.683E3,6.44E2,2.917E3,9.49E2,9.92E2,8.5E2,7.01E2,1.076E3,1.424E3,2.59E2,3.03E2,3.41E2],"tree_param":{"num_deleted":"0","num_feature":"3","num_nodes":"57","size_leaf_vector":"0"}},{"base_weights":[-1.8402397E-4,1.504206E-4,-5.241658E-4,2.565081E-4,-1.8950743E-5,-4.8298127E-4,-5.652678E-4,3.2574823E-4,-4.334073E-6,-7.442442E-5,1.0676948E-4,-4.4778662E-4,-5.025701E-4,-6.512574E-4,-4.5938842E-4,2.747047E-4,4.4937286E-4,-2.8990538E-4,2.537655E-4,-3.283887E-5,-2.1849679E-4,5.5876237E-5,4.0557532E-4,-4.199628E-4,-4.7504262E-4,-4.9130036E-4,-5.142809E-4,-6.401285E-4,-6.61844E-4,-4.2991457E-4,-4.8838434E-4,2.3263138E-4,3.4485612E-4,5.812157E-4,2.1419364E-4,-3.9040897E-4,-1.845643E-4,8.269103E-5,4.0309734E-4,-1.7018869E-5,-6.582042E-5,-4.353702E-4,-2.9981944E-5,1.491804E-4,-5.869194E-4,4.9232447E-4,2.4052993E-4,-8.891109E-5,5.173652E-6,-1.12895126E-4,6.680157E-5,6.6330365E-5,5.0275424E-4,-7.9726236E-4,-2.8608044E-4],"categories":[],"categories_nodes":[],"categories_segments":[],"categories_sizes":[],"default_left":[true,true,true,true,true,true,true,true,true,true,true,true,true,true,true,true,true,true,true,true,true,true,true,false,false,false,false,false,false,false,false,false,false,false,false,false,false,false,false,false,true,false,true,true,true,false,false,false,false,false,false,false,false,false,false],"id":18,"left_children":[1,3,5,7,9,11,13,15,17,19,21,23,25,27,29,31,33,35,37,39,41,43,45,-1,-1,-1,-1,-1,-1,-1,-1,-1,-1,-1,-1,-1,-1,-1,-1,-1,47,-1,49,51,53,-1,-1,-1,-1,-1,-1,-1,-1,-1,-1],"loss_changes":[1.2977319E-2,1.0335527E-3,9.546522E-5,6.3877413E-4,1.5451355E-4,1.9256026E-5,2.5736727E-4,1.7624116E-4,5.469708E-4,9.2091526E-5,1.03127786E-4,7.4699055E-6,2.1415763E-6,1.4165416E-6,1.0632677E-5,5.831232E-5,2.530762E-4,3.7226506E-5,9.954831E-5,6.223575E-6,1.4075007E-4,3.477656E-4,1.4013E-5,0E0,0E0,0E0,0E0,0E0,0E0,0E0,0E0,0E0,0E0,0E0,0E0,0E0,0E0,0E0,0E0,6.1439596E-7,6.339633E-6,7.461349E-7,1.4796934E-5,1.4828017E-4,4.628225E-5,0E0,0E0,0E0,0E0,0E0,0E0,0E0,0E0,0E0,0E0],"parents":[2147483647,0,0,1,1,2,2,3,3,4,4,5,5,6,6,7,7,8,8,9,9,10,10,11,11,12,12,13,13,14,14,15,15,16,16,17,17,18,18,19,19,20,20,21,21,22,22,40,40,42,42,43,43,44,44],"right_children":[2,4,6,8,10,12,14,16,18,20,22,24,26,28,30,32,34,36,38,40,42,44,46,-1,-1,-1,-1,-1,-1,-1,-1,-1,-1,-1,-1,-1,-1,-1,-1,-1,48,-1,50,52,54,-1,-1,-1,-1,-1,-1,-1,-1,-1,-1],"split_conditions":[-2.945432E-1,8.149115E-1,3.0899632E-1,3.0899632E-1,2.076737E0,-5.9934425E-1,1.2173369E0,-5.9934425E-1,1.2173369E0,3.0899632E-1,1.2173369E0,9.118013E-1,9.118013E-1,9.118013E-1,9.118013E-1,1.839987E-1,1.839987E-1,1.839987E-1,1.839987E-1,-5.9934425E-1,1.2173369E0,3.0899632E-1,2.7076497E0,-1.2598885E-4,-1.4251278E-4,-1.4739012E-4,-1.5428428E-4,-1.9203855E-4,-1.985532E-4,-1.2897438E-4,-1.465153E-4,6.978942E-5,1.0345684E-4,1.7436472E-4,6.425809E-5,-1.171227E-4,-5.536929E-5,2.480731E-5,1.209292E-4,-5.105661E-6,1.4458241E0,-1.3061106E-4,1.4458241E0,-5.9934425E-1,2.7076497E0,1.4769734E-4,7.215898E-5,-2.6673328E-5,1.5520957E-6,-3.386854E-5,2.0040472E-5,1.9899111E-5,1.5082628E-4,-2.3917871E-4,-8.582413E-5],"split_indices":[1,2,0,0,2,0,0,0,0,0,0,1,1,1,1,2,2,2,2,0,0,0,2,0,0,0,0,0,0,0,0,0,0,0,0,0,0,0,0,0,2,0,2,0,2,0,0,0,0,0,0,0,0,0,0],"split_type":[0,0,0,0,0,0,0,0,0,0,0,0,0,0,0,0,0,0,0,0,0,0,0,0,0,0,0,0,0,0,0,0,0,0,0,0,0,0,0,0,0,0,0,0,0,0,0,0,0,0,0,0,0,0,0],"sum_hessian":[1.14076E5,5.752E4,5.6556E4,3.5367E4,2.2153E4,2.8256E4,2.83E4,2.7948E4,7.419E3,1.5371E4,6.782E3,1.0112E4,1.8144E4,1.5614E4,1.2686E4,1.9783E4,8.165E3,3.522E3,3.897E3,1.1929E4,3.442E3,5.796E3,9.86E2,5.012E3,5.1E3,9.268E3,8.876E3,7.642E3,7.972E3,6.299E3,6.387E3,1.2369E4,7.414E3,5.231E3,2.934E3,1.801E3,1.721E3,1.817E3,2.08E3,8.063E3,3.866E3,1.6E3,1.842E3,5.062E3,7.34E2,6.45E2,3.41E2,2.917E3,9.49E2,9.92E2,8.5E2,4.102E3,9.6E2,4.31E2,3.03E2],"tree_param":{"num_deleted":"0","num_feature":"3","num_nodes":"55","size_leaf_vector":"0"}},{"base_weights":[-1.2882763E-4,1.0529584E-4,-3.6693938E-4,1.7956327E-4,-1.3273975E-5,-3.3810668E-4,-3.957143E-4,2.2803382E-4,-3.0355272E-6,-3.7493926E-5,1.9300707E-4,-3.1347477E-4,-3.5181647E-4,-4.5590597E-4,-3.2159995E-4,1.922905E-4,3.1460225E-4,-2.0298053E-4,1.7767491E-4,-1.2939752E-5,-1.20667726E-4,2.687853E-4,-5.138013E-6,-2.9399616E-4,-3.3255588E-4,-3.4392774E-4,-3.6001398E-4,-3.0096635E-4,-3.4189897E-4,1.628392E-4,2.4139641E-4,4.0690077E-4,1.4996156E-4,-2.7335083E-4,-1.2922312E-4,5.7909143E-5,2.8221912E-4,-2.7565962E-5,2.1457727E-5,-3.589461E-4,7.398755E-5,-2.0053209E-4,1.6856063E-4,-1.1920909E-5,-7.464851E-5,-4.6082056E-5,3.9347322E-4,-3.048429E-4,-5.5862265E-4,-2.0995776E-5,3.4485484E-4],"categories":[],"categories_nodes":[],"categories_segments":[],"categories_sizes":[],"default_left":[true,true,true,true,true,true,true,true,true,true,true,true,true,false,true,true,true,true,true,true,true,false,true,false,false,false,false,false,false,false,false,false,false,false,false,false,false,true,true,true,true,false,false,false,false,false,false,false,false,false,false],"id":19,"left_children":[1,3,5,7,9,11,13,15,17,19,21,23,25,-1,27,29,31,33,35,37,39,-1,41,-1,-1,-1,-1,-1,-1,-1,-1,-1,-1,-1,-1,-1,-1,43,45,47,49,-1,-1,-1,-1,-1,-1,-1,-1,-1,-1],"loss_changes":[6.359552E-3,5.065251E-4,4.678918E-5,3.1303102E-4,1.1069122E-4,9.432202E-6,1.261062E-4,8.642045E-5,2.681366E-4,4.0490413E-5,3.49565E-5,3.661029E-6,1.0496005E-6,6.94301E-7,5.210866E-6,2.8572977E-5,1.2403028E-4,1.8250212E-5,4.8789807E-5,7.702622E-6,2.0962744E-4,1.9632716E-7,2.19249E-5,0E0,0E0,0E0,0E0,0E0,0E0,0E0,0E0,0E0,0E0,0E0,0E0,0E0,0E0,7.9117635E-6,1.14793E-4,2.1781685E-5,6.40182E-5,0E0,0E0,0E0,0E0,0E0,0E0,0E0,0E0,0E0,0E0],"parents":[2147483647,0,0,1,1,2,2,3,3,4,4,5,5,6,6,7,7,8,8,9,9,10,10,11,11,12,12,14,14,15,15,16,16,17,17,18,18,19,19,20,20,22,22,37,37,38,38,39,39,40,40],"right_children":[2,4,6,8,10,12,14,16,18,20,22,24,26,-1,28,30,32,34,36,38,40,-1,42,-1,-1,-1,-1,-1,-1,-1,-1,-1,-1,-1,-1,-1,-1,44,46,48,50,-1,-1,-1,-1,-1,-1,-1,-1,-1,-1],"split_conditions":[-2.945432E-1,8.149115E-1,3.0899632E-1,3.0899632E-1,2.7076497E0,-5.9934425E-1,1.2173369E0,-5.9934425E-1,1.2173369E0,3.0899632E-1,3.0899632E-1,9.118013E-1,9.118013E-1,-1.3677179E-4,9.118013E-1,1.839987E-1,1.839987E-1,1.839987E-1,1.839987E-1,-5.9934425E-1,1.2173369E0,8.06356E-5,1.2173369E0,-8.819885E-5,-9.976677E-5,-1.03178325E-4,-1.080042E-4,-9.0289905E-5,-1.0256969E-4,4.8851765E-5,7.241892E-5,1.2207023E-4,4.498847E-5,-8.200525E-5,-3.8766935E-5,1.7372744E-5,8.4665735E-5,2.076737E0,2.076737E0,2.076737E0,2.076737E0,-6.015963E-5,5.056819E-5,-3.5762728E-6,-2.2394554E-5,-1.3824617E-5,1.1804197E-4,-9.145287E-5,-1.675868E-4,-6.2987333E-6,1.03456456E-4],"split_indices":[1,2,0,0,2,0,0,0,0,0,0,1,1,0,1,2,2,2,2,0,0,0,0,0,0,0,0,0,0,0,0,0,0,0,0,0,0,2,2,2,2,0,0,0,0,0,0,0,0,0,0],"split_type":[0,0,0,0,0,0,0,0,0,0,0,0,0,0,0,0,0,0,0,0,0,0,0,0,0,0,0,0,0,0,0,0,0,0,0,0,0,0,0,0,0,0,0,0,0,0,0,0,0,0,0],"sum_hessian":[1.14076E5,5.752E4,5.6556E4,3.5367E4,2.2153E4,2.8256E4,2.83E4,2.7948E4,7.419E3,1.9826E4,2.327E3,1.0112E4,1.8144E4,1.5614E4,1.2686E4,1.9783E4,8.165E3,3.522E3,3.897E3,1.5308E4,4.518E3,1.683E3,6.44E2,5.012E3,5.1E3,9.268E3,8.876E3,6.299E3,6.387E3,1.2369E4,7.414E3,5.231E3,2.934E3,1.801E3,1.721E3,1.817E3,2.08E3,1.0741E4,4.567E3,2.031E3,2.487E3,3.03E2,3.41E2,8.063E3,2.678E3,3.866E3,7.01E2,1.6E3,4.31E2,1.842E3,6.45E2],"tree_param":{"num_deleted":"0","num_feature":"3","num_nodes":"51","size_leaf_vector":"0"}},{"base_weights":[-9.018561E-5,7.370897E-5,-2.5687215E-4,1.2569621E-4,-9.289974E-6,-2.3668954E-4,-2.770143E-4,1.5962208E-4,-2.109687E-6,-2.6247042E-5,1.3513317E-4,-2.1945008E-4,-2.462848E-4,-3.1914443E-4,-2.2513926E-4,1.345949E-4,2.2023663E-4,-1.4211325E-4,1.2442563E-4,-9.0477E-6,-8.450738E-5,1.8818745E-4,-3.593236E-6,-2.0581126E-4,-2.3281062E-4,-2.1069293E-4,-2.3935131E-4,1.1396734E-4,1.6898844E-4,2.8485377E-4,1.0497354E-4,-1.9138036E-4,-9.0474765E-5,4.0572944E-5,1.9762108E-4,-1.9294377E-5,1.5050124E-5,-2.5139554E-4,5.182752E-5,-1.4055795E-4,1.1816368E-4,-8.345044E-6,-5.224553E-5,-3.2257354E-5,2.7562416E-4,-2.1345228E-4,-3.9143203E-4,-1.4698237E-5,2.4154136E-4],"categories":[],"categories_nodes":[],"categories_segments":[],"categories_sizes":[],"default_left":[true,true,true,true,true,true,true,true,true,true,true,true,false,false,true,true,true,true,true,true,true,false,true,false,false,false,false,false,false,false,false,false,false,false,false,true,true,true,true,false,false,false,false,false,false,false,false,false,false],"id":20,"left_children":[1,3,5,7,9,11,13,15,17,19,21,23,-1,-1,25,27,29,31,33,35,37,-1,39,-1,-1,-1,-1,-1,-1,-1,-1,-1,-1,-1,-1,41,43,45,47,-1,-1,-1,-1,-1,-1,-1,-1,-1,-1],"loss_changes":[3.1164908E-3,2.4819773E-4,2.2926135E-5,1.5335338E-4,5.4258544E-5,4.6200585E-6,6.177998E-5,4.2369298E-5,1.314659E-4,1.9866675E-5,1.7134826E-5,1.7948914E-6,5.142065E-7,7.9977326E-7,2.554385E-6,1.4016579E-5,6.0790248E-5,8.945477E-6,2.391648E-5,3.7804293E-6,1.028324E-4,2.2918903E-7,1.0772887E-5,0E0,0E0,0E0,0E0,0E0,0E0,0E0,0E0,0E0,0E0,0E0,0E0,3.8752037E-6,5.6319084E-5,1.0713353E-5,3.1404245E-5,0E0,0E0,0E0,0E0,0E0,0E0,0E0,0E0,0E0,0E0],"parents":[2147483647,0,0,1,1,2,2,3,3,4,4,5,5,6,6,7,7,8,8,9,9,10,10,11,11,14,14,15,15,16,16,17,17,18,18,19,19,20,20,22,22,35,35,36,36,37,37,38,38],"right_children":[2,4,6,8,10,12,14,16,18,20,22,24,-1,-1,26,28,30,32,34,36,38,-1,40,-1,-1,-1,-1,-1,-1,-1,-1,-1,-1,-1,-1,42,44,46,48,-1,-1,-1,-1,-1,-1,-1,-1,-1,-1],"split_conditions":[-2.945432E-1,8.149115E-1,3.0899632E-1,3.0899632E-1,2.7076497E0,-5.9934425E-1,1.2173369E0,-5.9934425E-1,1.2173369E0,3.0899632E-1,3.0899632E-1,9.118013E-1,-7.388544E-5,-9.574333E-5,9.118013E-1,1.839987E-1,1.839987E-1,1.839987E-1,1.839987E-1,-5.9934425E-1,1.2173369E0,5.6456236E-5,1.2173369E0,-6.174338E-5,-6.984319E-5,-6.320788E-5,-7.18054E-5,3.4190205E-5,5.0696533E-5,8.545614E-5,3.149206E-5,-5.741411E-5,-2.714243E-5,1.2171884E-5,5.9286325E-5,2.076737E0,2.076737E0,2.076737E0,2.076737E0,-4.2167387E-5,3.5449106E-5,-2.5035133E-6,-1.567366E-5,-9.677206E-6,8.268725E-5,-6.403569E-5,-1.1742961E-4,-4.4094713E-6,7.246241E-5],"split_indices":[1,2,0,0,2,0,0,0,0,0,0,1,0,0,1,2,2,2,2,0,0,0,0,0,0,0,0,0,0,0,0,0,0,0,0,2,2,2,2,0,0,0,0,0,0,0,0,0,0],"split_type":[0,0,0,0,0,0,0,0,0,0,0,0,0,0,0,0,0,0,0,0,0,0,0,0,0,0,0,0,0,0,0,0,0,0,0,0,0,0,0,0,0,0,0,0,0,0,0,0,0],"sum_hessian":[1.14076E5,5.752E4,5.6556E4,3.5367E4,2.2153E4,2.8256E4,2.83E4,2.7948E4,7.419E3,1.9826E4,2.327E3,1.0112E4,1.8144E4,1.5614E4,1.2686E4,1.9783E4,8.165E3,3.522E3,3.897E3,1.5308E4,4.518E3,1.683E3,6.44E2,5.012E3,5.1E3,6.299E3,6.387E3,1.2369E4,7.414E3,5.231E3,2.934E3,1.801E3,1.721E3,1.817E3,2.08E3,1.0741E4,4.567E3,2.031E3,2.487E3,3.03E2,3.41E2,8.063E3,2.678E3,3.866E3,7.01E2,1.6E3,4.31E2,1.842E3,6.45E2],"tree_param":{"num_deleted":"0","num_feature":"3","num_nodes":"49","size_leaf_vector":"0"}},{"base_weights":[-6.313705E-5,5.1590876E-5,-1.7981937E-4,8.797742E-5,-6.501164E-6,-1.6569237E-4,-1.9391805E-4,1.11724534E-4,-1.4829467E-6,-1.8374172E-5,9.462111E-5,-1.5362633E-4,-1.7240817E-4,-2.2341064E-4,-1.5760366E-4,9.41965E-5,1.5417654E-4,-9.950627E-5,8.71106E-5,-6.32622E-6,-5.9184913E-5,1.3177605E-4,-2.5316726E-6,-1.4749092E-4,-1.6755243E-4,7.975858E-5,1.1826969E-4,1.9939696E-4,7.351301E-5,-1.3401294E-4,-6.3338724E-5,2.8420285E-5,1.383417E-4,-1.3507345E-5,1.05621275E-5,-1.7607232E-4,3.6303194E-5,-9.85254E-5,8.280349E-5,-5.8420183E-6,-3.6575537E-5,-2.2572693E-5,1.930718E-4,-1.494622E-4,-2.7428239E-4,-6.838753E-5,1.057695E-4],"categories":[],"categories_nodes":[],"categories_segments":[],"categories_sizes":[],"default_left":[true,true,true,true,true,true,true,true,true,true,true,false,false,false,true,true,true,true,true,true,true,false,true,false,false,false,false,false,false,false,false,false,false,true,true,true,true,false,false,false,false,false,false,false,false,false,false],"id":21,"left_children":[1,3,5,7,9,11,13,15,17,19,21,-1,-1,-1,23,25,27,29,31,33,35,-1,37,-1,-1,-1,-1,-1,-1,-1,-1,-1,-1,39,41,43,45,-1,-1,-1,-1,-1,-1,-1,-1,-1,-1],"loss_changes":[1.5271262E-3,1.21586665E-4,1.1232449E-5,7.5136835E-5,2.6600397E-5,2.2632885E-6,3.0275318E-5,2.0782376E-5,6.444569E-5,9.7482825E-6,8.403731E-6,8.806237E-7,5.448237E-7,8.5204374E-7,1.2517266E-6,6.8668305E-6,2.9771967E-5,4.3882937E-6,1.17164545E-5,1.8567774E-6,5.0444563E-5,2.4459405E-7,5.2917662E-6,0E0,0E0,0E0,0E0,0E0,0E0,0E0,0E0,0E0,0E0,1.899243E-6,2.7628996E-5,5.2694013E-6,1.810116E-5,0E0,0E0,0E0,0E0,0E0,0E0,0E0,0E0,0E0,0E0],"parents":[2147483647,0,0,1,1,2,2,3,3,4,4,5,5,6,6,7,7,8,8,9,9,10,10,14,14,15,15,16,16,17,17,18,18,19,19,20,20,22,22,33,33,34,34,35,35,36,36],"right_children":[2,4,6,8,10,12,14,16,18,20,22,-1,-1,-1,24,26,28,30,32,34,36,-1,38,-1,-1,-1,-1,-1,-1,-1,-1,-1,-1,40,42,44,46,-1,-1,-1,-1,-1,-1,-1,-1,-1,-1],"split_conditions":[-2.945432E-1,8.149115E-1,3.0899632E-1,3.0899632E-1,2.7076497E0,-5.9934425E-1,1.2173369E0,-5.9934425E-1,1.2173369E0,3.0899632E-1,3.0899632E-1,-4.6087902E-5,-5.172245E-5,-6.70232E-5,9.118013E-1,1.839987E-1,1.839987E-1,1.839987E-1,1.839987E-1,-5.9934425E-1,1.2173369E0,3.9532817E-5,1.2173369E0,-4.4247277E-5,-5.026573E-5,2.3927576E-5,3.548091E-5,5.9819093E-5,2.2053904E-5,-4.0203882E-5,-1.9001618E-5,8.526086E-6,4.150251E-5,2.076737E0,2.076737E0,2.076737E0,1.4458241E0,-2.9557621E-5,2.4841049E-5,-1.7526055E-6,-1.0972662E-5,-6.771808E-6,5.792154E-5,-4.483866E-5,-8.228472E-5,-2.0516261E-5,3.173085E-5],"split_indices":[1,2,0,0,2,0,0,0,0,0,0,0,0,0,1,2,2,2,2,0,0,0,0,0,0,0,0,0,0,0,0,0,0,2,2,2,2,0,0,0,0,0,0,0,0,0,0],"split_type":[0,0,0,0,0,0,0,0,0,0,0,0,0,0,0,0,0,0,0,0,0,0,0,0,0,0,0,0,0,0,0,0,0,0,0,0,0,0,0,0,0,0,0,0,0,0,0],"sum_hessian":[1.14076E5,5.752E4,5.6556E4,3.5367E4,2.2153E4,2.8256E4,2.83E4,2.7948E4,7.419E3,1.9826E4,2.327E3,1.0112E4,1.8144E4,1.5614E4,1.2686E4,1.9783E4,8.165E3,3.522E3,3.897E3,1.5308E4,4.518E3,1.683E3,6.44E2,6.299E3,6.387E3,1.2369E4,7.414E3,5.231E3,2.934E3,1.801E3,1.721E3,1.817E3,2.08E3,1.0741E4,4.567E3,2.031E3,2.487E3,3.03E2,3.41E2,8.063E3,2.678E3,3.866E3,7.01E2,1.6E3,4.31E2,9.92E2,1.495E3],"tree_param":{"num_deleted":"0","num_feature":"3","num_nodes":"47","size_leaf_vector":"0"}},{"base_weights":[-4.4194112E-5,3.61225E-5,-1.2587891E-4,6.159834E-5,-4.5503143E-6,-1.15988805E-4,-1.357492E-4,7.822311E-5,-1.0306784E-6,-1.2864318E-5,6.625995E-5,-1.0915378E-4,-1.229642E-4,-1.5638916E-4,-1.1033511E-4,6.5961685E-5,1.0791962E-4,-6.96652E-5,6.1001247E-5,-4.4251046E-6,-4.1450963E-5,9.228288E-5,-1.7848125E-6,5.5858294E-5,8.280767E-5,1.395653E-4,5.147054E-5,-9.383195E-5,-4.4335266E-5,1.990223E-5,9.687679E-5,-1.233136E-4,2.5424579E-5,-6.905875E-5,5.8019457E-5,-1.0465192E-4,-1.9218873E-4,-1.3878196E-5,1.3751372E-4],"categories":[],"categories_nodes":[],"categories_segments":[],"categories_sizes":[],"default_left":[true,true,true,true,true,true,true,true,true,true,true,false,false,false,false,true,true,true,true,false,true,false,true,false,false,false,false,false,false,false,false,true,true,false,false,false,false,false,false],"id":22,"left_children":[1,3,5,7,9,11,13,15,17,19,21,-1,-1,-1,-1,23,25,27,29,-1,31,-1,33,-1,-1,-1,-1,-1,-1,-1,-1,35,37,-1,-1,-1,-1,-1,-1],"loss_changes":[7.4842345E-4,5.960204E-5,5.5052224E-6,3.6825004E-5,1.3043283E-5,1.3337703E-6,1.4827878E-5,1.0169708E-5,3.1595133E-5,4.7830563E-6,4.1224093E-6,9.484356E-7,2.7922215E-7,8.774514E-7,6.1350875E-7,3.362642E-6,1.4580306E-5,2.1524156E-6,5.745477E-6,9.096394E-7,2.474289E-5,2.516217E-7,2.5990148E-6,0E0,0E0,0E0,0E0,0E0,0E0,0E0,0E0,2.5916706E-6,1.096258E-5,0E0,0E0,0E0,0E0,0E0,0E0],"parents":[2147483647,0,0,1,1,2,2,3,3,4,4,5,5,6,6,7,7,8,8,9,9,10,10,15,15,16,16,17,17,18,18,20,20,22,22,31,31,32,32],"right_children":[2,4,6,8,10,12,14,16,18,20,22,-1,-1,-1,-1,24,26,28,30,-1,32,-1,34,-1,-1,-1,-1,-1,-1,-1,-1,36,38,-1,-1,-1,-1,-1,-1],"split_conditions":[-2.945432E-1,8.149115E-1,3.0899632E-1,3.0899632E-1,2.7076497E0,9.118013E-1,1.2173369E0,-5.9934425E-1,1.2173369E0,3.0899632E-1,3.0899632E-1,-3.2746135E-5,-3.6889258E-5,-4.691675E-5,-3.3100536E-5,1.839987E-1,1.839987E-1,1.839987E-1,1.839987E-1,-1.3275314E-6,1.2173369E0,2.7684864E-5,1.2173369E0,1.6757489E-5,2.4842304E-5,4.186959E-5,1.5441163E-5,-2.8149587E-5,-1.3300581E-5,5.9706695E-6,2.906304E-5,2.076737E0,2.076737E0,-2.0717625E-5,1.7405839E-5,-3.1395575E-5,-5.765662E-5,-4.163459E-6,4.125412E-5],"split_indices":[1,2,0,0,2,1,0,0,0,0,0,0,0,0,0,2,2,2,2,0,0,0,0,0,0,0,0,0,0,0,0,2,2,0,0,0,0,0,0],"split_type":[0,0,0,0,0,0,0,0,0,0,0,0,0,0,0,0,0,0,0,0,0,0,0,0,0,0,0,0,0,0,0,0,0,0,0,0,0,0,0],"sum_hessian":[1.14076E5,5.752E4,5.6556E4,3.5367E4,2.2153E4,2.8256E4,2.83E4,2.7948E4,7.419E3,1.9826E4,2.327E3,1.428E4,1.3976E4,1.5614E4,1.2686E4,1.9783E4,8.165E3,3.522E3,3.897E3,1.5308E4,4.518E3,1.683E3,6.44E2,1.2369E4,7.414E3,5.231E3,2.934E3,1.801E3,1.721E3,1.817E3,2.08E3,2.031E3,2.487E3,3.03E2,3.41E2,1.6E3,4.31E2,1.842E3,6.45E2],"tree_param":{"num_deleted":"0","num_feature":"3","num_nodes":"39","size_leaf_vector":"0"}},{"base_weights":[-3.093279E-5,2.5292175E-5,-8.811555E-5,4.312542E-5,-3.1790498E-6,-7.2703704E-5,-9.146945E-5,5.476555E-5,-7.254054E-7,-9.001706E-6,4.641243E-5,-9.681331E-5,-7.724269E-5,4.6176112E-5,7.556872E-5,-4.8775008E-5,4.2701857E-5,-2.1170463E-5,1.952789E-6,6.9898306E-5,9.339666E-6,-8.591093E-5,-1.09475935E-4,3.910996E-5,5.7957925E-5,9.773081E-5,3.603631E-5,-6.568442E-5,-3.1051703E-5,1.3945176E-5,6.78037E-5,4.9606506E-6,-4.555479E-5,-1.7673801E-5,3.0770178E-5,-3.0637108E-5,-6.7946254E-5,7.831124E-5,3.120458E-7],"categories":[],"categories_nodes":[],"categories_segments":[],"categories_sizes":[],"default_left":[true,true,true,true,true,false,true,true,true,true,true,true,false,true,true,true,true,true,true,false,false,false,false,false,false,false,false,false,false,false,false,false,true,false,true,false,false,false,false],"id":23,"left_children":[1,3,5,7,9,-1,11,13,15,17,19,21,-1,23,25,27,29,31,33,-1,-1,-1,-1,-1,-1,-1,-1,-1,-1,-1,-1,-1,35,-1,37,-1,-1,-1,-1],"loss_changes":[3.6677104E-4,2.9205523E-5,2.9167568E-6,1.805291E-5,6.397476E-6,5.4582415E-7,3.5235425E-6,4.990645E-6,1.548512E-5,2.643032E-6,2.026305E-6,4.6511122E-6,6.1943865E-7,1.6447921E-6,7.1508803E-6,1.0537697E-6,2.8128097E-6,5.985348E-6,5.9024455E-6,0E0,5.397778E-7,2.2238237E-7,8.8971865E-7,0E0,0E0,0E0,0E0,0E0,0E0,0E0,0E0,0E0,1.6209642E-6,2.0685752E-7,6.1221704E-6,0E0,0E0,0E0,0E0],"parents":[2147483647,0,0,1,1,2,2,3,3,4,4,6,6,7,7,8,8,9,9,10,10,11,11,13,13,14,14,15,15,16,16,17,17,18,18,32,32,34,34],"right_children":[2,4,6,8,10,-1,12,14,16,18,20,22,-1,24,26,28,30,32,34,-1,-1,-1,-1,-1,-1,-1,-1,-1,-1,-1,-1,-1,36,-1,38,-1,-1,-1,-1],"split_conditions":[-2.945432E-1,8.149115E-1,-5.9934425E-1,3.0899632E-1,2.7076497E0,-2.1811113E-5,1.2173369E0,-5.9934425E-1,1.2173369E0,1.4458241E0,-5.9934425E-1,3.0899632E-1,-2.3172806E-5,1.839987E-1,1.839987E-1,1.839987E-1,1.839987E-1,-5.9934425E-1,-5.9934425E-1,2.0969492E-5,2.8018999E-6,-2.5773279E-5,-3.284278E-5,1.1732988E-5,1.7387378E-5,2.9319244E-5,1.08108925E-5,-1.9705327E-5,-9.315511E-6,4.183553E-6,2.0341111E-5,1.4881953E-6,3.0899632E-1,-5.3021404E-6,3.0899632E-1,-9.191132E-6,-2.0383877E-5,2.3493374E-5,9.361375E-8],"split_indices":[1,2,0,0,2,0,0,0,0,2,0,0,0,2,2,2,2,0,0,0,0,0,0,0,0,0,0,0,0,0,0,0,0,0,0,0,0,0,0],"split_type":[0,0,0,0,0,0,0,0,0,0,0,0,0,0,0,0,0,0,0,0,0,0,0,0,0,0,0,0,0,0,0,0,0,0,0,0,0,0,0],"sum_hessian":[1.14076E5,5.752E4,5.6556E4,3.5367E4,2.2153E4,1.0112E4,4.6444E4,2.7948E4,7.419E3,1.9826E4,2.327E3,3.3758E4,1.2686E4,1.9783E4,8.165E3,3.522E3,3.897E3,9.392E3,1.0434E4,1.424E3,9.03E2,1.8144E4,1.5614E4,1.2369E4,7.414E3,5.231E3,2.934E3,1.801E3,1.721E3,1.817E3,2.08E3,4.534E3,4.858E3,6.207E3,4.227E3,2.917E3,1.941E3,1.65E3,2.577E3],"tree_param":{"num_deleted":"0","num_feature":"3","num_nodes":"39","size_leaf_vector":"0"}},{"base_weights":[-2.1654088E-5,1.7702536E-5,-6.168115E-5,3.018606E-5,-2.2277256E-6,-5.546451E-5,-6.787061E-5,3.8331524E-5,-4.996267E-7,-1.0240679E-5,1.5931992E-5,-6.174064E-5,-7.3832365E-5,3.2313095E-5,5.2907853E-5,-3.414819E-5,2.9911967E-5,-5.1650595E-6,-2.7824735E-5,5.6860463E-6,7.609391E-5,-8.4070685E-5,-6.104214E-5,6.8411064E-5,2.5253432E-5,9.77508E-6,4.748955E-5,-6.1229766E-5,1.2090558E-6,2.108208E-5,-1.00376266E-4,-2.3371804E-5,2.9890118E-5,4.58934E-6,9.1476075E-5,-1.347442E-4,-5.1207448E-5],"categories":[],"categories_nodes":[],"categories_segments":[],"categories_sizes":[],"default_left":[true,true,true,true,true,false,true,true,true,true,true,false,true,false,true,false,true,false,true,true,false,false,false,false,false,false,false,false,true,true,true,false,false,false,false,false,false],"id":24,"left_children":[1,3,5,7,9,-1,11,13,15,17,19,-1,21,-1,23,-1,25,-1,27,29,-1,-1,-1,-1,-1,-1,-1,-1,31,33,35,-1,-1,-1,-1,-1,-1],"loss_changes":[1.7971004E-4,1.4311283E-5,2.1724263E-6,8.840223E-6,3.2238574E-6,8.780844E-7,1.0309886E-6,2.4501605E-6,7.5939556E-6,1.3718071E-6,4.1807148E-6,9.6446456E-8,1.8753199E-6,8.0503924E-7,3.4993027E-6,5.1733514E-7,1.3792633E-6,3.7941533E-7,3.3393521E-6,9.468264E-6,7.55198E-7,0E0,0E0,0E0,0E0,0E0,0E0,3.117534E-7,1.3000231E-6,5.8776714E-6,1.2351252E-6,0E0,0E0,0E0,0E0,0E0,0E0],"parents":[2147483647,0,0,1,1,2,2,3,3,4,4,6,6,7,7,8,8,9,9,10,10,12,12,14,14,16,16,18,18,19,19,28,28,29,29,30,30],"right_children":[2,4,6,8,10,-1,12,14,16,18,20,-1,22,-1,24,-1,26,-1,28,30,-1,-1,-1,-1,-1,-1,-1,-1,32,34,36,-1,-1,-1,-1,-1,-1],"split_conditions":[-2.945432E-1,8.149115E-1,9.118013E-1,3.0899632E-1,2.076737E0,-1.6639353E-5,3.0899632E-1,-5.9934425E-1,1.2173369E0,3.0899632E-1,1.2173369E0,-1.8522192E-5,1.2173369E0,9.693929E-6,1.839987E-1,-1.0244457E-5,1.839987E-1,-1.549518E-6,1.2173369E0,3.0899632E-1,2.2828173E-5,-2.5221207E-5,-1.8312643E-5,2.052332E-5,7.57603E-6,2.932524E-6,1.4246865E-5,-1.836893E-5,1.4458241E0,-5.9934425E-1,2.7076497E0,-7.0115416E-6,8.967036E-6,1.376802E-6,2.7442824E-5,-4.0423263E-5,-1.5362235E-5],"split_indices":[1,2,1,0,2,0,0,0,0,0,0,0,0,0,2,0,2,0,0,0,0,0,0,0,0,0,0,0,2,0,2,0,0,0,0,0,0],"split_type":[0,0,0,0,0,0,0,0,0,0,0,0,0,0,0,0,0,0,0,0,0,0,0,0,0,0,0,0,0,0,0,0,0,0,0,0,0],"sum_hessian":[1.14076E5,5.752E4,5.6556E4,3.5367E4,2.2153E4,2.8221E4,2.8335E4,2.7948E4,7.419E3,1.5371E4,6.782E3,1.3976E4,1.4359E4,1.9783E4,8.165E3,3.522E3,3.897E3,1.1929E4,3.442E3,5.796E3,9.86E2,7.972E3,6.387E3,5.231E3,2.934E3,1.817E3,2.08E3,1.6E3,1.842E3,5.062E3,7.34E2,9.92E2,8.5E2,4.102E3,9.6E2,4.31E2,3.03E2],"tree_param":{"num_deleted":"0","num_feature":"3","num_nodes":"37","size_leaf_vector":"0"}},{"base_weights":[-1.5159246E-5,1.238826E-5,-4.3176024E-5,2.1123325E-5,-1.5574922E-6,-3.329952E-5,-4.5325618E-5,2.6821299E-5,-3.421403E-7,-4.9406017E-6,2.7256285E-5,-4.860729E-5,-3.658981E-5,2.259678E-5,3.7052876E-5,-2.3899102E-5,2.0948655E-5,-8.475141E-6,1.9695191E-5,4.756049E-5,-4.779943E-6,-4.2571362E-5,-5.5618068E-5,4.7910988E-5,1.7684333E-5,-2.451949E-6,-5.384944E-5,8.5393435E-7,7.34177E-5],"categories":[],"categories_nodes":[],"categories_segments":[],"categories_sizes":[],"default_left":[true,true,true,true,true,false,true,true,true,true,true,true,false,false,true,false,false,true,true,false,false,false,false,false,false,false,false,false,false],"id":25,"left_children":[1,3,5,7,9,-1,11,13,15,17,19,21,-1,-1,23,-1,-1,25,27,-1,-1,-1,-1,-1,-1,-1,-1,-1,-1],"loss_changes":[8.80443E-5,7.007071E-6,1.1992233E-6,4.3258588E-6,2.1597104E-6,4.1904423E-7,1.3297031E-6,1.207216E-6,3.7219756E-6,1.7266264E-6,1.5145218E-6,1.4261968E-6,4.8424045E-7,8.05484E-7,1.7165103E-6,5.179186E-7,6.7545955E-7,4.738857E-6,2.5182899E-6,0E0,2.1737245E-7,1.2265446E-7,1.6777994E-7,0E0,0E0,2.091206E-7,9.0145204E-7,6.388689E-7,0E0],"parents":[2147483647,0,0,1,1,2,2,3,3,4,4,6,6,7,7,8,8,9,9,10,10,11,11,14,14,17,17,18,18],"right_children":[2,4,6,8,10,-1,12,14,16,18,20,22,-1,-1,24,-1,-1,26,28,-1,-1,-1,-1,-1,-1,-1,-1,-1,-1],"split_conditions":[-2.945432E-1,8.149115E-1,-5.9934425E-1,3.0899632E-1,2.7076497E0,-9.989856E-6,1.2173369E0,-5.9934425E-1,1.2173369E0,1.2173369E0,-5.9934425E-1,3.0899632E-1,-1.0976943E-5,6.7790343E-6,1.839987E-1,-7.169731E-6,6.284597E-6,3.0899632E-1,2.076737E0,1.4268147E-5,-1.433983E-6,-1.2771409E-5,-1.668542E-5,1.4373297E-5,5.3053E-6,-7.3558476E-7,-1.6154832E-5,2.5618033E-7,2.2025311E-5],"split_indices":[1,2,0,0,2,0,0,0,0,0,0,0,0,0,2,0,0,0,2,0,0,0,0,0,0,0,0,0,0],"split_type":[0,0,0,0,0,0,0,0,0,0,0,0,0,0,0,0,0,0,0,0,0,0,0,0,0,0,0,0,0],"sum_hessian":[1.14076E5,5.752E4,5.6556E4,3.5367E4,2.2153E4,1.0112E4,4.6444E4,2.7948E4,7.419E3,1.9826E4,2.327E3,3.3758E4,1.2686E4,1.9783E4,8.165E3,3.522E3,3.897E3,1.7339E4,2.487E3,1.424E3,9.03E2,1.8144E4,1.5614E4,5.231E3,2.934E3,1.5308E4,2.031E3,1.842E3,6.45E2],"tree_param":{"num_deleted":"0","num_feature":"3","num_nodes":"29","size_leaf_vector":"0"}},{"base_weights":[-1.0612294E-5,8.672571E-6,-3.0225678E-5,1.4784648E-5,-1.0855126E-6,-2.5887199E-5,-3.4545636E-5,1.876742E-5,-2.1929408E-7,-3.4551408E-6,1.9096491E-5,-1.6717957E-5,1.4692201E-5],"categories":[],"categories_nodes":[],"categories_segments":[],"categories_sizes":[],"default_left":[true,true,true,true,true,false,false,false,true,false,false,false,false],"id":26,"left_children":[1,3,5,7,9,-1,-1,-1,11,-1,-1,-1,-1],"loss_changes":[4.314891E-5,3.4306931E-6,1.0590993E-6,2.1134983E-6,1.0595555E-6,5.0071503E-7,2.598863E-7,5.937709E-7,1.8257119E-6,8.4610537E-7,7.435823E-7,5.1826873E-7,6.757642E-7],"parents":[2147483647,0,0,1,1,2,2,3,3,4,4,8,8],"right_children":[2,4,6,8,10,-1,-1,-1,12,-1,-1,-1,-1],"split_conditions":[-2.945432E-1,8.149115E-1,9.118013E-1,3.0899632E-1,2.7076497E0,-7.76616E-6,-1.0363691E-5,5.630226E-6,1.2173369E0,-1.0365422E-6,5.7289476E-6,-5.015387E-6,4.4076605E-6],"split_indices":[1,2,1,0,2,0,0,0,0,0,0,0,0],"split_type":[0,0,0,0,0,0,0,0,0,0,0,0,0],"sum_hessian":[1.14076E5,5.752E4,5.6556E4,3.5367E4,2.2153E4,2.8221E4,2.8335E4,2.7948E4,7.419E3,1.9826E4,2.327E3,3.522E3,3.897E3],"tree_param":{"num_deleted":"0","num_feature":"3","num_nodes":"13","size_leaf_vector":"0"}},{"base_weights":[-7.424646E-6,6.0827465E-6,-2.1162137E-5,1.0369472E-5,-7.611188E-7,1.3164322E-5,-1.5931992E-7,-1.3647413E-5,1.26795985E-5],"categories":[],"categories_nodes":[],"categories_segments":[],"categories_sizes":[],"default_left":[true,true,false,true,false,false,true,false,false],"id":27,"left_children":[1,3,-1,5,-1,-1,7,-1,-1],"loss_changes":[2.116799E-5,1.6875456E-6,5.8842306E-7,1.0407546E-6,7.9966895E-7,5.9481044E-7,1.2851132E-6,3.5317163E-7,4.5123005E-7],"parents":[2147483647,0,0,1,1,3,3,6,6],"right_children":[2,4,-1,6,-1,-1,8,-1,-1],"split_conditions":[-2.945432E-1,8.149115E-1,-6.3486414E-6,3.0899632E-1,-2.2833565E-7,3.9492966E-6,1.839987E-1,-4.094224E-6,3.8038797E-6],"split_indices":[1,2,0,0,0,0,2,0,0],"split_type":[0,0,0,0,0,0,0,0,0],"sum_hessian":[1.14076E5,5.752E4,5.6556E4,3.5367E4,2.2153E4,2.7948E4,7.419E3,3.618E3,3.801E3],"tree_param":{"num_deleted":"0","num_feature":"3","num_nodes":"9","size_leaf_vector":"0"}},{"base_weights":[-5.1926345E-6,4.2686916E-6,-1.4815135E-5,6.482733E-6,-3.6396932E-6,-2.1624266E-5,1.2021812E-5,-1.585619E-5,-6.1798724E-5],"categories":[],"categories_nodes":[],"categories_segments":[],"categories_sizes":[],"default_left":[true,true,false,false,true,true,false,false,false],"id":28,"left_children":[1,3,-1,-1,5,7,-1,-1,-1],"loss_changes":[1.03858165E-5,1.007187E-6,5.883867E-7,5.9351896E-7,3.5441751E-6,1.3562587E-6,8.8671914E-7,2.1450853E-7,2.4156293E-7],"parents":[2147483647,0,0,1,1,4,4,5,5],"right_children":[2,4,-1,-1,6,8,-1,-1,-1],"split_conditions":[-2.945432E-1,3.0899632E-1,-4.4445405E-6,1.94482E-6,1.2173369E0,2.076737E0,3.6065437E-6,-4.7568574E-6,-1.8539618E-5],"split_indices":[1,0,0,0,0,2,0,0,0],"split_type":[0,0,0,0,0,0,0,0,0],"sum_hessian":[1.14076E5,5.752E4,5.6556E4,4.4939E4,1.2581E4,5.856E3,6.725E3,5.122E3,7.34E2],"tree_param":{"num_deleted":"0","num_feature":"3","num_nodes":"9","size_leaf_vector":"0"}},{"base_weights":[-3.642677E-6,2.9737105E-6,-1.0371775E-5],"categories":[],"categories_nodes":[],"categories_segments":[],"categories_sizes":[],"default_left":[true,false,false],"id":29,"left_children":[1,-1,-1],"loss_changes":[5.079003E-6,7.284323E-7,5.881684E-7],"parents":[2147483647,0,0],"right_children":[2,-1,-1],"split_conditions":[-2.945432E-1,8.921132E-7,-3.1115326E-6],"split_indices":[1,0,0],"split_type":[0,0,0],"sum_hessian":[1.14076E5,5.752E4,5.6556E4],"tree_param":{"num_deleted":"0","num_feature":"3","num_nodes":"3","size_leaf_vector":"0"}},{"base_weights":[-2.548987E-6,2.0807547E-6,-7.2575963E-6],"categories":[],"categories_nodes":[],"categories_segments":[],"categories_sizes":[],"default_left":[true,false,false],"id":30,"left_children":[1,-1,-1],"loss_changes":[2.4868532E-6,7.279835E-7,5.8826254E-7],"parents":[2147483647,0,0],"right_children":[2,-1,-1],"split_conditions":[-2.945432E-1,6.2422646E-7,-2.177279E-6],"split_indices":[1,0,0],"split_type":[0,0,0],"sum_hessian":[1.14076E5,5.752E4,5.6556E4],"tree_param":{"num_deleted":"0","num_feature":"3","num_nodes":"3","size_leaf_vector":"0"}},